digraph Tree {
node [shape=box] ;
0 [label="X[6] <= 4.615\ngini = 0.899\nsamples = 1600\nvalue = [162, 174, 182, 176, 148, 116, 174, 140, 168, 160]"] ;
1 [label="X[10] <= 0.13\ngini = 0.883\nsamples = 1188\nvalue = [77, 71, 172, 176, 58, 116, 172, 136, 163, 47]"] ;
0 -> 1 [labeldistance=2.5, labelangle=45, headlabel="True"] ;
2 [label="X[9] <= 0.031\ngini = 0.832\nsamples = 429\nvalue = [19, 32, 48, 43, 22, 44, 144, 28, 34, 15]"] ;
1 -> 2 ;
3 [label="X[11] <= 0.157\ngini = 0.873\nsamples = 221\nvalue = [16, 14, 38, 40, 19, 38, 22, 15, 7, 12]"] ;
2 -> 3 ;
4 [label="X[6] <= 3.274\ngini = 0.851\nsamples = 113\nvalue = [10, 14, 27, 2, 5, 20, 18, 10, 4, 3]"] ;
3 -> 4 ;
5 [label="X[12] <= 0.035\ngini = 0.83\nsamples = 96\nvalue = [2, 13, 26, 2, 2, 19, 15, 10, 4, 3]"] ;
4 -> 5 ;
6 [label="X[3] <= 3.175\ngini = 0.754\nsamples = 49\nvalue = [0, 10, 20, 1, 2, 8, 3, 3, 2, 0]"] ;
5 -> 6 ;
7 [label="X[6] <= 0.647\ngini = 0.625\nsamples = 12\nvalue = [0, 6, 1, 0, 0, 4, 1, 0, 0, 0]"] ;
6 -> 7 ;
8 [label="X[4] <= 1983.205\ngini = 0.32\nsamples = 5\nvalue = [0, 0, 1, 0, 0, 4, 0, 0, 0, 0]"] ;
7 -> 8 ;
9 [label="gini = 0.0\nsamples = 4\nvalue = [0, 0, 0, 0, 0, 4, 0, 0, 0, 0]"] ;
8 -> 9 ;
10 [label="gini = 0.0\nsamples = 1\nvalue = [0, 0, 1, 0, 0, 0, 0, 0, 0, 0]"] ;
8 -> 10 ;
11 [label="X[5] <= 1.037\ngini = 0.245\nsamples = 7\nvalue = [0, 6, 0, 0, 0, 0, 1, 0, 0, 0]"] ;
7 -> 11 ;
12 [label="gini = 0.0\nsamples = 6\nvalue = [0, 6, 0, 0, 0, 0, 0, 0, 0, 0]"] ;
11 -> 12 ;
13 [label="gini = 0.0\nsamples = 1\nvalue = [0, 0, 0, 0, 0, 0, 1, 0, 0, 0]"] ;
11 -> 13 ;
14 [label="X[3] <= 3.864\ngini = 0.697\nsamples = 37\nvalue = [0, 4, 19, 1, 2, 4, 2, 3, 2, 0]"] ;
6 -> 14 ;
15 [label="gini = 0.0\nsamples = 12\nvalue = [0, 0, 12, 0, 0, 0, 0, 0, 0, 0]"] ;
14 -> 15 ;
16 [label="X[11] <= 0.039\ngini = 0.835\nsamples = 25\nvalue = [0, 4, 7, 1, 2, 4, 2, 3, 2, 0]"] ;
14 -> 16 ;
17 [label="gini = 0.0\nsamples = 3\nvalue = [0, 3, 0, 0, 0, 0, 0, 0, 0, 0]"] ;
16 -> 17 ;
18 [label="X[11] <= 0.123\ngini = 0.818\nsamples = 22\nvalue = [0, 1, 7, 1, 2, 4, 2, 3, 2, 0]"] ;
16 -> 18 ;
19 [label="X[10] <= 0.116\ngini = 0.857\nsamples = 14\nvalue = [0, 1, 2, 1, 2, 1, 2, 3, 2, 0]"] ;
18 -> 19 ;
20 [label="X[2] <= -0.002\ngini = 0.815\nsamples = 9\nvalue = [0, 1, 2, 1, 2, 1, 2, 0, 0, 0]"] ;
19 -> 20 ;
21 [label="gini = 0.0\nsamples = 2\nvalue = [0, 0, 0, 0, 2, 0, 0, 0, 0, 0]"] ;
20 -> 21 ;
22 [label="X[4] <= 5092.108\ngini = 0.776\nsamples = 7\nvalue = [0, 1, 2, 1, 0, 1, 2, 0, 0, 0]"] ;
20 -> 22 ;
23 [label="X[1] <= 217.383\ngini = 0.72\nsamples = 5\nvalue = [0, 1, 0, 1, 0, 1, 2, 0, 0, 0]"] ;
22 -> 23 ;
24 [label="X[12] <= 0.002\ngini = 0.667\nsamples = 3\nvalue = [0, 1, 0, 1, 0, 1, 0, 0, 0, 0]"] ;
23 -> 24 ;
25 [label="gini = 0.0\nsamples = 1\nvalue = [0, 0, 0, 0, 0, 1, 0, 0, 0, 0]"] ;
24 -> 25 ;
26 [label="X[4] <= 4341.422\ngini = 0.5\nsamples = 2\nvalue = [0, 1, 0, 1, 0, 0, 0, 0, 0, 0]"] ;
24 -> 26 ;
27 [label="gini = 0.0\nsamples = 1\nvalue = [0, 0, 0, 1, 0, 0, 0, 0, 0, 0]"] ;
26 -> 27 ;
28 [label="gini = 0.0\nsamples = 1\nvalue = [0, 1, 0, 0, 0, 0, 0, 0, 0, 0]"] ;
26 -> 28 ;
29 [label="gini = 0.0\nsamples = 2\nvalue = [0, 0, 0, 0, 0, 0, 2, 0, 0, 0]"] ;
23 -> 29 ;
30 [label="gini = 0.0\nsamples = 2\nvalue = [0, 0, 2, 0, 0, 0, 0, 0, 0, 0]"] ;
22 -> 30 ;
31 [label="X[7] <= 0.265\ngini = 0.48\nsamples = 5\nvalue = [0, 0, 0, 0, 0, 0, 0, 3, 2, 0]"] ;
19 -> 31 ;
32 [label="gini = 0.0\nsamples = 2\nvalue = [0, 0, 0, 0, 0, 0, 0, 0, 2, 0]"] ;
31 -> 32 ;
33 [label="gini = 0.0\nsamples = 3\nvalue = [0, 0, 0, 0, 0, 0, 0, 3, 0, 0]"] ;
31 -> 33 ;
34 [label="X[11] <= 0.143\ngini = 0.469\nsamples = 8\nvalue = [0, 0, 5, 0, 0, 3, 0, 0, 0, 0]"] ;
18 -> 34 ;
35 [label="gini = 0.0\nsamples = 4\nvalue = [0, 0, 4, 0, 0, 0, 0, 0, 0, 0]"] ;
34 -> 35 ;
36 [label="X[0] <= 0.5\ngini = 0.375\nsamples = 4\nvalue = [0, 0, 1, 0, 0, 3, 0, 0, 0, 0]"] ;
34 -> 36 ;
37 [label="gini = 0.0\nsamples = 1\nvalue = [0, 0, 1, 0, 0, 0, 0, 0, 0, 0]"] ;
36 -> 37 ;
38 [label="gini = 0.0\nsamples = 3\nvalue = [0, 0, 0, 0, 0, 3, 0, 0, 0, 0]"] ;
36 -> 38 ;
39 [label="X[1] <= 137.837\ngini = 0.829\nsamples = 47\nvalue = [2, 3, 6, 1, 0, 11, 12, 7, 2, 3]"] ;
5 -> 39 ;
40 [label="X[4] <= 2176.397\ngini = 0.449\nsamples = 7\nvalue = [0, 0, 5, 0, 0, 0, 1, 1, 0, 0]"] ;
39 -> 40 ;
41 [label="X[5] <= 1.69\ngini = 0.5\nsamples = 2\nvalue = [0, 0, 0, 0, 0, 0, 1, 1, 0, 0]"] ;
40 -> 41 ;
42 [label="gini = 0.0\nsamples = 1\nvalue = [0, 0, 0, 0, 0, 0, 1, 0, 0, 0]"] ;
41 -> 42 ;
43 [label="gini = 0.0\nsamples = 1\nvalue = [0, 0, 0, 0, 0, 0, 0, 1, 0, 0]"] ;
41 -> 43 ;
44 [label="gini = 0.0\nsamples = 5\nvalue = [0, 0, 5, 0, 0, 0, 0, 0, 0, 0]"] ;
40 -> 44 ;
45 [label="X[4] <= 4404.784\ngini = 0.809\nsamples = 40\nvalue = [2, 3, 1, 1, 0, 11, 11, 6, 2, 3]"] ;
39 -> 45 ;
46 [label="X[2] <= 0.001\ngini = 0.768\nsamples = 27\nvalue = [2, 2, 0, 0, 0, 4, 11, 4, 2, 2]"] ;
45 -> 46 ;
47 [label="X[3] <= 3.641\ngini = 0.676\nsamples = 21\nvalue = [1, 2, 0, 0, 0, 0, 11, 3, 2, 2]"] ;
46 -> 47 ;
48 [label="X[8] <= 0.0\ngini = 0.56\nsamples = 5\nvalue = [0, 1, 0, 0, 0, 0, 0, 3, 1, 0]"] ;
47 -> 48 ;
49 [label="gini = 0.0\nsamples = 3\nvalue = [0, 0, 0, 0, 0, 0, 0, 3, 0, 0]"] ;
48 -> 49 ;
50 [label="X[4] <= 1680.404\ngini = 0.5\nsamples = 2\nvalue = [0, 1, 0, 0, 0, 0, 0, 0, 1, 0]"] ;
48 -> 50 ;
51 [label="gini = 0.0\nsamples = 1\nvalue = [0, 0, 0, 0, 0, 0, 0, 0, 1, 0]"] ;
50 -> 51 ;
52 [label="gini = 0.0\nsamples = 1\nvalue = [0, 1, 0, 0, 0, 0, 0, 0, 0, 0]"] ;
50 -> 52 ;
53 [label="X[12] <= 0.144\ngini = 0.5\nsamples = 16\nvalue = [1, 1, 0, 0, 0, 0, 11, 0, 1, 2]"] ;
47 -> 53 ;
54 [label="X[4] <= 3943.618\ngini = 0.292\nsamples = 12\nvalue = [1, 0, 0, 0, 0, 0, 10, 0, 1, 0]"] ;
53 -> 54 ;
55 [label="X[2] <= -0.001\ngini = 0.165\nsamples = 11\nvalue = [0, 0, 0, 0, 0, 0, 10, 0, 1, 0]"] ;
54 -> 55 ;
56 [label="X[1] <= 203.027\ngini = 0.5\nsamples = 2\nvalue = [0, 0, 0, 0, 0, 0, 1, 0, 1, 0]"] ;
55 -> 56 ;
57 [label="gini = 0.0\nsamples = 1\nvalue = [0, 0, 0, 0, 0, 0, 1, 0, 0, 0]"] ;
56 -> 57 ;
58 [label="gini = 0.0\nsamples = 1\nvalue = [0, 0, 0, 0, 0, 0, 0, 0, 1, 0]"] ;
56 -> 58 ;
59 [label="gini = 0.0\nsamples = 9\nvalue = [0, 0, 0, 0, 0, 0, 9, 0, 0, 0]"] ;
55 -> 59 ;
60 [label="gini = 0.0\nsamples = 1\nvalue = [1, 0, 0, 0, 0, 0, 0, 0, 0, 0]"] ;
54 -> 60 ;
61 [label="X[7] <= 0.542\ngini = 0.625\nsamples = 4\nvalue = [0, 1, 0, 0, 0, 0, 1, 0, 0, 2]"] ;
53 -> 61 ;
62 [label="gini = 0.0\nsamples = 2\nvalue = [0, 0, 0, 0, 0, 0, 0, 0, 0, 2]"] ;
61 -> 62 ;
63 [label="X[11] <= 0.034\ngini = 0.5\nsamples = 2\nvalue = [0, 1, 0, 0, 0, 0, 1, 0, 0, 0]"] ;
61 -> 63 ;
64 [label="gini = 0.0\nsamples = 1\nvalue = [0, 1, 0, 0, 0, 0, 0, 0, 0, 0]"] ;
63 -> 64 ;
65 [label="gini = 0.0\nsamples = 1\nvalue = [0, 0, 0, 0, 0, 0, 1, 0, 0, 0]"] ;
63 -> 65 ;
66 [label="X[11] <= 0.007\ngini = 0.5\nsamples = 6\nvalue = [1, 0, 0, 0, 0, 4, 0, 1, 0, 0]"] ;
46 -> 66 ;
67 [label="gini = 0.0\nsamples = 1\nvalue = [1, 0, 0, 0, 0, 0, 0, 0, 0, 0]"] ;
66 -> 67 ;
68 [label="X[3] <= 4.219\ngini = 0.32\nsamples = 5\nvalue = [0, 0, 0, 0, 0, 4, 0, 1, 0, 0]"] ;
66 -> 68 ;
69 [label="gini = 0.0\nsamples = 3\nvalue = [0, 0, 0, 0, 0, 3, 0, 0, 0, 0]"] ;
68 -> 69 ;
70 [label="X[4] <= 1320.104\ngini = 0.5\nsamples = 2\nvalue = [0, 0, 0, 0, 0, 1, 0, 1, 0, 0]"] ;
68 -> 70 ;
71 [label="gini = 0.0\nsamples = 1\nvalue = [0, 0, 0, 0, 0, 0, 0, 1, 0, 0]"] ;
70 -> 71 ;
72 [label="gini = 0.0\nsamples = 1\nvalue = [0, 0, 0, 0, 0, 1, 0, 0, 0, 0]"] ;
70 -> 72 ;
73 [label="X[7] <= 0.46\ngini = 0.663\nsamples = 13\nvalue = [0, 1, 1, 1, 0, 7, 0, 2, 0, 1]"] ;
45 -> 73 ;
74 [label="X[3] <= 6.058\ngini = 0.48\nsamples = 10\nvalue = [0, 0, 1, 0, 0, 7, 0, 1, 0, 1]"] ;
73 -> 74 ;
75 [label="X[1] <= 265.198\ngini = 0.37\nsamples = 9\nvalue = [0, 0, 1, 0, 0, 7, 0, 1, 0, 0]"] ;
74 -> 75 ;
76 [label="gini = 0.0\nsamples = 6\nvalue = [0, 0, 0, 0, 0, 6, 0, 0, 0, 0]"] ;
75 -> 76 ;
77 [label="X[6] <= 1.277\ngini = 0.667\nsamples = 3\nvalue = [0, 0, 1, 0, 0, 1, 0, 1, 0, 0]"] ;
75 -> 77 ;
78 [label="gini = 0.0\nsamples = 1\nvalue = [0, 0, 0, 0, 0, 0, 0, 1, 0, 0]"] ;
77 -> 78 ;
79 [label="X[5] <= 0.453\ngini = 0.5\nsamples = 2\nvalue = [0, 0, 1, 0, 0, 1, 0, 0, 0, 0]"] ;
77 -> 79 ;
80 [label="gini = 0.0\nsamples = 1\nvalue = [0, 0, 0, 0, 0, 1, 0, 0, 0, 0]"] ;
79 -> 80 ;
81 [label="gini = 0.0\nsamples = 1\nvalue = [0, 0, 1, 0, 0, 0, 0, 0, 0, 0]"] ;
79 -> 81 ;
82 [label="gini = 0.0\nsamples = 1\nvalue = [0, 0, 0, 0, 0, 0, 0, 0, 0, 1]"] ;
74 -> 82 ;
83 [label="X[2] <= -0.001\ngini = 0.667\nsamples = 3\nvalue = [0, 1, 0, 1, 0, 0, 0, 1, 0, 0]"] ;
73 -> 83 ;
84 [label="gini = 0.0\nsamples = 1\nvalue = [0, 1, 0, 0, 0, 0, 0, 0, 0, 0]"] ;
83 -> 84 ;
85 [label="X[1] <= 225.102\ngini = 0.5\nsamples = 2\nvalue = [0, 0, 0, 1, 0, 0, 0, 1, 0, 0]"] ;
83 -> 85 ;
86 [label="gini = 0.0\nsamples = 1\nvalue = [0, 0, 0, 0, 0, 0, 0, 1, 0, 0]"] ;
85 -> 86 ;
87 [label="gini = 0.0\nsamples = 1\nvalue = [0, 0, 0, 1, 0, 0, 0, 0, 0, 0]"] ;
85 -> 87 ;
88 [label="X[4] <= 4733.481\ngini = 0.706\nsamples = 17\nvalue = [8, 1, 1, 0, 3, 1, 3, 0, 0, 0]"] ;
4 -> 88 ;
89 [label="X[3] <= 6.553\ngini = 0.741\nsamples = 9\nvalue = [1, 1, 0, 0, 3, 1, 3, 0, 0, 0]"] ;
88 -> 89 ;
90 [label="X[11] <= 0.108\ngini = 0.667\nsamples = 6\nvalue = [1, 1, 0, 0, 3, 1, 0, 0, 0, 0]"] ;
89 -> 90 ;
91 [label="X[10] <= 0.019\ngini = 0.667\nsamples = 3\nvalue = [1, 1, 0, 0, 0, 1, 0, 0, 0, 0]"] ;
90 -> 91 ;
92 [label="gini = 0.0\nsamples = 1\nvalue = [0, 0, 0, 0, 0, 1, 0, 0, 0, 0]"] ;
91 -> 92 ;
93 [label="X[5] <= 1.176\ngini = 0.5\nsamples = 2\nvalue = [1, 1, 0, 0, 0, 0, 0, 0, 0, 0]"] ;
91 -> 93 ;
94 [label="gini = 0.0\nsamples = 1\nvalue = [1, 0, 0, 0, 0, 0, 0, 0, 0, 0]"] ;
93 -> 94 ;
95 [label="gini = 0.0\nsamples = 1\nvalue = [0, 1, 0, 0, 0, 0, 0, 0, 0, 0]"] ;
93 -> 95 ;
96 [label="gini = 0.0\nsamples = 3\nvalue = [0, 0, 0, 0, 3, 0, 0, 0, 0, 0]"] ;
90 -> 96 ;
97 [label="gini = 0.0\nsamples = 3\nvalue = [0, 0, 0, 0, 0, 0, 3, 0, 0, 0]"] ;
89 -> 97 ;
98 [label="X[5] <= 2.138\ngini = 0.219\nsamples = 8\nvalue = [7, 0, 1, 0, 0, 0, 0, 0, 0, 0]"] ;
88 -> 98 ;
99 [label="gini = 0.0\nsamples = 7\nvalue = [7, 0, 0, 0, 0, 0, 0, 0, 0, 0]"] ;
98 -> 99 ;
100 [label="gini = 0.0\nsamples = 1\nvalue = [0, 0, 1, 0, 0, 0, 0, 0, 0, 0]"] ;
98 -> 100 ;
101 [label="X[3] <= 5.113\ngini = 0.807\nsamples = 108\nvalue = [6, 0, 11, 38, 14, 18, 4, 5, 3, 9]"] ;
3 -> 101 ;
102 [label="X[12] <= 0.205\ngini = 0.659\nsamples = 64\nvalue = [0, 0, 5, 35, 4, 10, 3, 4, 2, 1]"] ;
101 -> 102 ;
103 [label="X[2] <= 0.002\ngini = 0.629\nsamples = 61\nvalue = [0, 0, 5, 35, 4, 10, 3, 1, 2, 1]"] ;
102 -> 103 ;
104 [label="X[4] <= 3616.611\ngini = 0.591\nsamples = 57\nvalue = [0, 0, 5, 35, 4, 7, 3, 0, 2, 1]"] ;
103 -> 104 ;
105 [label="X[4] <= 2698.474\ngini = 0.724\nsamples = 33\nvalue = [0, 0, 2, 15, 3, 7, 3, 0, 2, 1]"] ;
104 -> 105 ;
106 [label="X[3] <= 5.051\ngini = 0.547\nsamples = 17\nvalue = [0, 0, 1, 11, 0, 2, 2, 0, 0, 1]"] ;
105 -> 106 ;
107 [label="X[11] <= 0.2\ngini = 0.5\nsamples = 16\nvalue = [0, 0, 1, 11, 0, 2, 1, 0, 0, 1]"] ;
106 -> 107 ;
108 [label="X[1] <= 275.046\ngini = 0.72\nsamples = 5\nvalue = [0, 0, 0, 2, 0, 1, 1, 0, 0, 1]"] ;
107 -> 108 ;
109 [label="X[10] <= 0.048\ngini = 0.667\nsamples = 3\nvalue = [0, 0, 0, 0, 0, 1, 1, 0, 0, 1]"] ;
108 -> 109 ;
110 [label="gini = 0.0\nsamples = 1\nvalue = [0, 0, 0, 0, 0, 0, 0, 0, 0, 1]"] ;
109 -> 110 ;
111 [label="X[11] <= 0.181\ngini = 0.5\nsamples = 2\nvalue = [0, 0, 0, 0, 0, 1, 1, 0, 0, 0]"] ;
109 -> 111 ;
112 [label="gini = 0.0\nsamples = 1\nvalue = [0, 0, 0, 0, 0, 1, 0, 0, 0, 0]"] ;
111 -> 112 ;
113 [label="gini = 0.0\nsamples = 1\nvalue = [0, 0, 0, 0, 0, 0, 1, 0, 0, 0]"] ;
111 -> 113 ;
114 [label="gini = 0.0\nsamples = 2\nvalue = [0, 0, 0, 2, 0, 0, 0, 0, 0, 0]"] ;
108 -> 114 ;
115 [label="X[2] <= -0.001\ngini = 0.314\nsamples = 11\nvalue = [0, 0, 1, 9, 0, 1, 0, 0, 0, 0]"] ;
107 -> 115 ;
116 [label="gini = 0.0\nsamples = 1\nvalue = [0, 0, 1, 0, 0, 0, 0, 0, 0, 0]"] ;
115 -> 116 ;
117 [label="X[5] <= 0.706\ngini = 0.18\nsamples = 10\nvalue = [0, 0, 0, 9, 0, 1, 0, 0, 0, 0]"] ;
115 -> 117 ;
118 [label="gini = 0.0\nsamples = 8\nvalue = [0, 0, 0, 8, 0, 0, 0, 0, 0, 0]"] ;
117 -> 118 ;
119 [label="X[2] <= -0.0\ngini = 0.5\nsamples = 2\nvalue = [0, 0, 0, 1, 0, 1, 0, 0, 0, 0]"] ;
117 -> 119 ;
120 [label="gini = 0.0\nsamples = 1\nvalue = [0, 0, 0, 1, 0, 0, 0, 0, 0, 0]"] ;
119 -> 120 ;
121 [label="gini = 0.0\nsamples = 1\nvalue = [0, 0, 0, 0, 0, 1, 0, 0, 0, 0]"] ;
119 -> 121 ;
122 [label="gini = 0.0\nsamples = 1\nvalue = [0, 0, 0, 0, 0, 0, 1, 0, 0, 0]"] ;
106 -> 122 ;
123 [label="X[2] <= -0.0\ngini = 0.781\nsamples = 16\nvalue = [0, 0, 1, 4, 3, 5, 1, 0, 2, 0]"] ;
105 -> 123 ;
124 [label="X[9] <= 0.0\ngini = 0.611\nsamples = 6\nvalue = [0, 0, 0, 3, 0, 0, 1, 0, 2, 0]"] ;
123 -> 124 ;
125 [label="X[2] <= -0.0\ngini = 0.444\nsamples = 3\nvalue = [0, 0, 0, 0, 0, 0, 1, 0, 2, 0]"] ;
124 -> 125 ;
126 [label="gini = 0.0\nsamples = 1\nvalue = [0, 0, 0, 0, 0, 0, 1, 0, 0, 0]"] ;
125 -> 126 ;
127 [label="gini = 0.0\nsamples = 2\nvalue = [0, 0, 0, 0, 0, 0, 0, 0, 2, 0]"] ;
125 -> 127 ;
128 [label="gini = 0.0\nsamples = 3\nvalue = [0, 0, 0, 3, 0, 0, 0, 0, 0, 0]"] ;
124 -> 128 ;
129 [label="X[3] <= 4.003\ngini = 0.64\nsamples = 10\nvalue = [0, 0, 1, 1, 3, 5, 0, 0, 0, 0]"] ;
123 -> 129 ;
130 [label="X[7] <= 0.147\ngini = 0.444\nsamples = 3\nvalue = [0, 0, 1, 0, 2, 0, 0, 0, 0, 0]"] ;
129 -> 130 ;
131 [label="gini = 0.0\nsamples = 2\nvalue = [0, 0, 0, 0, 2, 0, 0, 0, 0, 0]"] ;
130 -> 131 ;
132 [label="gini = 0.0\nsamples = 1\nvalue = [0, 0, 1, 0, 0, 0, 0, 0, 0, 0]"] ;
130 -> 132 ;
133 [label="X[11] <= 0.327\ngini = 0.449\nsamples = 7\nvalue = [0, 0, 0, 1, 1, 5, 0, 0, 0, 0]"] ;
129 -> 133 ;
134 [label="X[3] <= 4.659\ngini = 0.278\nsamples = 6\nvalue = [0, 0, 0, 0, 1, 5, 0, 0, 0, 0]"] ;
133 -> 134 ;
135 [label="gini = 0.0\nsamples = 5\nvalue = [0, 0, 0, 0, 0, 5, 0, 0, 0, 0]"] ;
134 -> 135 ;
136 [label="gini = 0.0\nsamples = 1\nvalue = [0, 0, 0, 0, 1, 0, 0, 0, 0, 0]"] ;
134 -> 136 ;
137 [label="gini = 0.0\nsamples = 1\nvalue = [0, 0, 0, 1, 0, 0, 0, 0, 0, 0]"] ;
133 -> 137 ;
138 [label="X[10] <= 0.112\ngini = 0.288\nsamples = 24\nvalue = [0, 0, 3, 20, 1, 0, 0, 0, 0, 0]"] ;
104 -> 138 ;
139 [label="X[2] <= -0.003\ngini = 0.169\nsamples = 22\nvalue = [0, 0, 1, 20, 1, 0, 0, 0, 0, 0]"] ;
138 -> 139 ;
140 [label="X[11] <= 0.221\ngini = 0.5\nsamples = 2\nvalue = [0, 0, 1, 0, 1, 0, 0, 0, 0, 0]"] ;
139 -> 140 ;
141 [label="gini = 0.0\nsamples = 1\nvalue = [0, 0, 0, 0, 1, 0, 0, 0, 0, 0]"] ;
140 -> 141 ;
142 [label="gini = 0.0\nsamples = 1\nvalue = [0, 0, 1, 0, 0, 0, 0, 0, 0, 0]"] ;
140 -> 142 ;
143 [label="gini = 0.0\nsamples = 20\nvalue = [0, 0, 0, 20, 0, 0, 0, 0, 0, 0]"] ;
139 -> 143 ;
144 [label="gini = 0.0\nsamples = 2\nvalue = [0, 0, 2, 0, 0, 0, 0, 0, 0, 0]"] ;
138 -> 144 ;
145 [label="X[6] <= 1.33\ngini = 0.375\nsamples = 4\nvalue = [0, 0, 0, 0, 0, 3, 0, 1, 0, 0]"] ;
103 -> 145 ;
146 [label="gini = 0.0\nsamples = 1\nvalue = [0, 0, 0, 0, 0, 0, 0, 1, 0, 0]"] ;
145 -> 146 ;
147 [label="gini = 0.0\nsamples = 3\nvalue = [0, 0, 0, 0, 0, 3, 0, 0, 0, 0]"] ;
145 -> 147 ;
148 [label="gini = 0.0\nsamples = 3\nvalue = [0, 0, 0, 0, 0, 0, 0, 3, 0, 0]"] ;
102 -> 148 ;
149 [label="X[9] <= 0.001\ngini = 0.839\nsamples = 44\nvalue = [6, 0, 6, 3, 10, 8, 1, 1, 1, 8]"] ;
101 -> 149 ;
150 [label="X[1] <= 265.198\ngini = 0.745\nsamples = 14\nvalue = [3, 0, 6, 1, 1, 1, 0, 1, 1, 0]"] ;
149 -> 150 ;
151 [label="X[12] <= 0.071\ngini = 0.519\nsamples = 9\nvalue = [0, 0, 6, 0, 0, 1, 0, 1, 1, 0]"] ;
150 -> 151 ;
152 [label="gini = 0.0\nsamples = 5\nvalue = [0, 0, 5, 0, 0, 0, 0, 0, 0, 0]"] ;
151 -> 152 ;
153 [label="X[10] <= 0.056\ngini = 0.75\nsamples = 4\nvalue = [0, 0, 1, 0, 0, 1, 0, 1, 1, 0]"] ;
151 -> 153 ;
154 [label="gini = 0.0\nsamples = 1\nvalue = [0, 0, 0, 0, 0, 1, 0, 0, 0, 0]"] ;
153 -> 154 ;
155 [label="X[5] <= 0.538\ngini = 0.667\nsamples = 3\nvalue = [0, 0, 1, 0, 0, 0, 0, 1, 1, 0]"] ;
153 -> 155 ;
156 [label="gini = 0.0\nsamples = 1\nvalue = [0, 0, 1, 0, 0, 0, 0, 0, 0, 0]"] ;
155 -> 156 ;
157 [label="X[12] <= 0.094\ngini = 0.5\nsamples = 2\nvalue = [0, 0, 0, 0, 0, 0, 0, 1, 1, 0]"] ;
155 -> 157 ;
158 [label="gini = 0.0\nsamples = 1\nvalue = [0, 0, 0, 0, 0, 0, 0, 1, 0, 0]"] ;
157 -> 158 ;
159 [label="gini = 0.0\nsamples = 1\nvalue = [0, 0, 0, 0, 0, 0, 0, 0, 1, 0]"] ;
157 -> 159 ;
160 [label="X[3] <= 5.993\ngini = 0.56\nsamples = 5\nvalue = [3, 0, 0, 1, 1, 0, 0, 0, 0, 0]"] ;
150 -> 160 ;
161 [label="X[9] <= 0.0\ngini = 0.5\nsamples = 2\nvalue = [0, 0, 0, 1, 1, 0, 0, 0, 0, 0]"] ;
160 -> 161 ;
162 [label="gini = 0.0\nsamples = 1\nvalue = [0, 0, 0, 0, 1, 0, 0, 0, 0, 0]"] ;
161 -> 162 ;
163 [label="gini = 0.0\nsamples = 1\nvalue = [0, 0, 0, 1, 0, 0, 0, 0, 0, 0]"] ;
161 -> 163 ;
164 [label="gini = 0.0\nsamples = 3\nvalue = [3, 0, 0, 0, 0, 0, 0, 0, 0, 0]"] ;
160 -> 164 ;
165 [label="X[6] <= 2.3\ngini = 0.769\nsamples = 30\nvalue = [3, 0, 0, 2, 9, 7, 1, 0, 0, 8]"] ;
149 -> 165 ;
166 [label="X[3] <= 5.57\ngini = 0.406\nsamples = 8\nvalue = [0, 0, 0, 0, 0, 1, 1, 0, 0, 6]"] ;
165 -> 166 ;
167 [label="gini = 0.0\nsamples = 1\nvalue = [0, 0, 0, 0, 0, 1, 0, 0, 0, 0]"] ;
166 -> 167 ;
168 [label="X[4] <= 2308.273\ngini = 0.245\nsamples = 7\nvalue = [0, 0, 0, 0, 0, 0, 1, 0, 0, 6]"] ;
166 -> 168 ;
169 [label="gini = 0.0\nsamples = 1\nvalue = [0, 0, 0, 0, 0, 0, 1, 0, 0, 0]"] ;
168 -> 169 ;
170 [label="gini = 0.0\nsamples = 6\nvalue = [0, 0, 0, 0, 0, 0, 0, 0, 0, 6]"] ;
168 -> 170 ;
171 [label="X[2] <= 0.0\ngini = 0.723\nsamples = 22\nvalue = [3, 0, 0, 2, 9, 6, 0, 0, 0, 2]"] ;
165 -> 171 ;
172 [label="X[0] <= 0.786\ngini = 0.578\nsamples = 15\nvalue = [3, 0, 0, 0, 9, 2, 0, 0, 0, 1]"] ;
171 -> 172 ;
173 [label="X[11] <= 0.298\ngini = 0.462\nsamples = 13\nvalue = [3, 0, 0, 0, 9, 1, 0, 0, 0, 0]"] ;
172 -> 173 ;
174 [label="X[3] <= 5.314\ngini = 0.375\nsamples = 12\nvalue = [3, 0, 0, 0, 9, 0, 0, 0, 0, 0]"] ;
173 -> 174 ;
175 [label="gini = 0.0\nsamples = 1\nvalue = [1, 0, 0, 0, 0, 0, 0, 0, 0, 0]"] ;
174 -> 175 ;
176 [label="X[8] <= 0.0\ngini = 0.298\nsamples = 11\nvalue = [2, 0, 0, 0, 9, 0, 0, 0, 0, 0]"] ;
174 -> 176 ;
177 [label="gini = 0.0\nsamples = 5\nvalue = [0, 0, 0, 0, 5, 0, 0, 0, 0, 0]"] ;
176 -> 177 ;
178 [label="X[3] <= 5.794\ngini = 0.444\nsamples = 6\nvalue = [2, 0, 0, 0, 4, 0, 0, 0, 0, 0]"] ;
176 -> 178 ;
179 [label="gini = 0.0\nsamples = 3\nvalue = [0, 0, 0, 0, 3, 0, 0, 0, 0, 0]"] ;
178 -> 179 ;
180 [label="X[6] <= 4.285\ngini = 0.444\nsamples = 3\nvalue = [2, 0, 0, 0, 1, 0, 0, 0, 0, 0]"] ;
178 -> 180 ;
181 [label="gini = 0.0\nsamples = 2\nvalue = [2, 0, 0, 0, 0, 0, 0, 0, 0, 0]"] ;
180 -> 181 ;
182 [label="gini = 0.0\nsamples = 1\nvalue = [0, 0, 0, 0, 1, 0, 0, 0, 0, 0]"] ;
180 -> 182 ;
183 [label="gini = 0.0\nsamples = 1\nvalue = [0, 0, 0, 0, 0, 1, 0, 0, 0, 0]"] ;
173 -> 183 ;
184 [label="X[4] <= 3789.684\ngini = 0.5\nsamples = 2\nvalue = [0, 0, 0, 0, 0, 1, 0, 0, 0, 1]"] ;
172 -> 184 ;
185 [label="gini = 0.0\nsamples = 1\nvalue = [0, 0, 0, 0, 0, 1, 0, 0, 0, 0]"] ;
184 -> 185 ;
186 [label="gini = 0.0\nsamples = 1\nvalue = [0, 0, 0, 0, 0, 0, 0, 0, 0, 1]"] ;
184 -> 186 ;
187 [label="X[2] <= 0.0\ngini = 0.571\nsamples = 7\nvalue = [0, 0, 0, 2, 0, 4, 0, 0, 0, 1]"] ;
171 -> 187 ;
188 [label="X[11] <= 0.222\ngini = 0.625\nsamples = 4\nvalue = [0, 0, 0, 2, 0, 1, 0, 0, 0, 1]"] ;
187 -> 188 ;
189 [label="X[5] <= 0.802\ngini = 0.5\nsamples = 2\nvalue = [0, 0, 0, 0, 0, 1, 0, 0, 0, 1]"] ;
188 -> 189 ;
190 [label="gini = 0.0\nsamples = 1\nvalue = [0, 0, 0, 0, 0, 0, 0, 0, 0, 1]"] ;
189 -> 190 ;
191 [label="gini = 0.0\nsamples = 1\nvalue = [0, 0, 0, 0, 0, 1, 0, 0, 0, 0]"] ;
189 -> 191 ;
192 [label="gini = 0.0\nsamples = 2\nvalue = [0, 0, 0, 2, 0, 0, 0, 0, 0, 0]"] ;
188 -> 192 ;
193 [label="gini = 0.0\nsamples = 3\nvalue = [0, 0, 0, 0, 0, 3, 0, 0, 0, 0]"] ;
187 -> 193 ;
194 [label="X[11] <= 0.092\ngini = 0.624\nsamples = 208\nvalue = [3, 18, 10, 3, 3, 6, 122, 13, 27, 3]"] ;
2 -> 194 ;
195 [label="X[4] <= 4333.461\ngini = 0.769\nsamples = 68\nvalue = [3, 18, 5, 1, 0, 2, 3, 11, 24, 1]"] ;
194 -> 195 ;
196 [label="X[2] <= -0.0\ngini = 0.737\nsamples = 54\nvalue = [2, 6, 4, 1, 0, 2, 3, 11, 24, 1]"] ;
195 -> 196 ;
197 [label="X[9] <= 0.05\ngini = 0.599\nsamples = 37\nvalue = [1, 0, 2, 0, 0, 1, 3, 7, 22, 1]"] ;
196 -> 197 ;
198 [label="X[11] <= 0.056\ngini = 0.375\nsamples = 4\nvalue = [0, 0, 0, 0, 0, 0, 1, 3, 0, 0]"] ;
197 -> 198 ;
199 [label="gini = 0.0\nsamples = 3\nvalue = [0, 0, 0, 0, 0, 0, 0, 3, 0, 0]"] ;
198 -> 199 ;
200 [label="gini = 0.0\nsamples = 1\nvalue = [0, 0, 0, 0, 0, 0, 1, 0, 0, 0]"] ;
198 -> 200 ;
201 [label="X[3] <= 5.758\ngini = 0.531\nsamples = 33\nvalue = [1, 0, 2, 0, 0, 1, 2, 4, 22, 1]"] ;
197 -> 201 ;
202 [label="X[1] <= 287.998\ngini = 0.306\nsamples = 23\nvalue = [0, 0, 2, 0, 0, 0, 1, 1, 19, 0]"] ;
201 -> 202 ;
203 [label="X[10] <= 0.108\ngini = 0.244\nsamples = 22\nvalue = [0, 0, 2, 0, 0, 0, 0, 1, 19, 0]"] ;
202 -> 203 ;
204 [label="gini = 0.0\nsamples = 16\nvalue = [0, 0, 0, 0, 0, 0, 0, 0, 16, 0]"] ;
203 -> 204 ;
205 [label="X[10] <= 0.119\ngini = 0.611\nsamples = 6\nvalue = [0, 0, 2, 0, 0, 0, 0, 1, 3, 0]"] ;
203 -> 205 ;
206 [label="X[8] <= 0.01\ngini = 0.444\nsamples = 3\nvalue = [0, 0, 2, 0, 0, 0, 0, 1, 0, 0]"] ;
205 -> 206 ;
207 [label="gini = 0.0\nsamples = 2\nvalue = [0, 0, 2, 0, 0, 0, 0, 0, 0, 0]"] ;
206 -> 207 ;
208 [label="gini = 0.0\nsamples = 1\nvalue = [0, 0, 0, 0, 0, 0, 0, 1, 0, 0]"] ;
206 -> 208 ;
209 [label="gini = 0.0\nsamples = 3\nvalue = [0, 0, 0, 0, 0, 0, 0, 0, 3, 0]"] ;
205 -> 209 ;
210 [label="gini = 0.0\nsamples = 1\nvalue = [0, 0, 0, 0, 0, 0, 1, 0, 0, 0]"] ;
202 -> 210 ;
211 [label="X[11] <= 0.069\ngini = 0.78\nsamples = 10\nvalue = [1, 0, 0, 0, 0, 1, 1, 3, 3, 1]"] ;
201 -> 211 ;
212 [label="X[6] <= 1.906\ngini = 0.667\nsamples = 6\nvalue = [1, 0, 0, 0, 0, 1, 0, 3, 0, 1]"] ;
211 -> 212 ;
213 [label="gini = 0.0\nsamples = 3\nvalue = [0, 0, 0, 0, 0, 0, 0, 3, 0, 0]"] ;
212 -> 213 ;
214 [label="X[4] <= 2343.474\ngini = 0.667\nsamples = 3\nvalue = [1, 0, 0, 0, 0, 1, 0, 0, 0, 1]"] ;
212 -> 214 ;
215 [label="gini = 0.0\nsamples = 1\nvalue = [0, 0, 0, 0, 0, 1, 0, 0, 0, 0]"] ;
214 -> 215 ;
216 [label="X[7] <= 0.309\ngini = 0.5\nsamples = 2\nvalue = [1, 0, 0, 0, 0, 0, 0, 0, 0, 1]"] ;
214 -> 216 ;
217 [label="gini = 0.0\nsamples = 1\nvalue = [0, 0, 0, 0, 0, 0, 0, 0, 0, 1]"] ;
216 -> 217 ;
218 [label="gini = 0.0\nsamples = 1\nvalue = [1, 0, 0, 0, 0, 0, 0, 0, 0, 0]"] ;
216 -> 218 ;
219 [label="X[9] <= 0.067\ngini = 0.375\nsamples = 4\nvalue = [0, 0, 0, 0, 0, 0, 1, 0, 3, 0]"] ;
211 -> 219 ;
220 [label="gini = 0.0\nsamples = 1\nvalue = [0, 0, 0, 0, 0, 0, 1, 0, 0, 0]"] ;
219 -> 220 ;
221 [label="gini = 0.0\nsamples = 3\nvalue = [0, 0, 0, 0, 0, 0, 0, 0, 3, 0]"] ;
219 -> 221 ;
222 [label="X[12] <= 0.011\ngini = 0.782\nsamples = 17\nvalue = [1, 6, 2, 1, 0, 1, 0, 4, 2, 0]"] ;
196 -> 222 ;
223 [label="X[9] <= 0.07\ngini = 0.278\nsamples = 6\nvalue = [1, 5, 0, 0, 0, 0, 0, 0, 0, 0]"] ;
222 -> 223 ;
224 [label="gini = 0.0\nsamples = 1\nvalue = [1, 0, 0, 0, 0, 0, 0, 0, 0, 0]"] ;
223 -> 224 ;
225 [label="gini = 0.0\nsamples = 5\nvalue = [0, 5, 0, 0, 0, 0, 0, 0, 0, 0]"] ;
223 -> 225 ;
226 [label="X[7] <= 0.325\ngini = 0.777\nsamples = 11\nvalue = [0, 1, 2, 1, 0, 1, 0, 4, 2, 0]"] ;
222 -> 226 ;
227 [label="X[6] <= 1.083\ngini = 0.716\nsamples = 9\nvalue = [0, 1, 2, 1, 0, 1, 0, 4, 0, 0]"] ;
226 -> 227 ;
228 [label="gini = 0.0\nsamples = 2\nvalue = [0, 0, 2, 0, 0, 0, 0, 0, 0, 0]"] ;
227 -> 228 ;
229 [label="X[2] <= 0.0\ngini = 0.612\nsamples = 7\nvalue = [0, 1, 0, 1, 0, 1, 0, 4, 0, 0]"] ;
227 -> 229 ;
230 [label="X[4] <= 2366.304\ngini = 0.5\nsamples = 2\nvalue = [0, 1, 0, 0, 0, 1, 0, 0, 0, 0]"] ;
229 -> 230 ;
231 [label="gini = 0.0\nsamples = 1\nvalue = [0, 0, 0, 0, 0, 1, 0, 0, 0, 0]"] ;
230 -> 231 ;
232 [label="gini = 0.0\nsamples = 1\nvalue = [0, 1, 0, 0, 0, 0, 0, 0, 0, 0]"] ;
230 -> 232 ;
233 [label="X[10] <= 0.034\ngini = 0.32\nsamples = 5\nvalue = [0, 0, 0, 1, 0, 0, 0, 4, 0, 0]"] ;
229 -> 233 ;
234 [label="gini = 0.0\nsamples = 1\nvalue = [0, 0, 0, 1, 0, 0, 0, 0, 0, 0]"] ;
233 -> 234 ;
235 [label="gini = 0.0\nsamples = 4\nvalue = [0, 0, 0, 0, 0, 0, 0, 4, 0, 0]"] ;
233 -> 235 ;
236 [label="gini = 0.0\nsamples = 2\nvalue = [0, 0, 0, 0, 0, 0, 0, 0, 2, 0]"] ;
226 -> 236 ;
237 [label="X[6] <= 1.176\ngini = 0.255\nsamples = 14\nvalue = [1, 12, 1, 0, 0, 0, 0, 0, 0, 0]"] ;
195 -> 237 ;
238 [label="gini = 0.0\nsamples = 1\nvalue = [0, 0, 1, 0, 0, 0, 0, 0, 0, 0]"] ;
237 -> 238 ;
239 [label="X[9] <= 0.054\ngini = 0.142\nsamples = 13\nvalue = [1, 12, 0, 0, 0, 0, 0, 0, 0, 0]"] ;
237 -> 239 ;
240 [label="gini = 0.0\nsamples = 1\nvalue = [1, 0, 0, 0, 0, 0, 0, 0, 0, 0]"] ;
239 -> 240 ;
241 [label="gini = 0.0\nsamples = 12\nvalue = [0, 12, 0, 0, 0, 0, 0, 0, 0, 0]"] ;
239 -> 241 ;
242 [label="X[3] <= 4.269\ngini = 0.274\nsamples = 140\nvalue = [0, 0, 5, 2, 3, 4, 119, 2, 3, 2]"] ;
194 -> 242 ;
243 [label="X[11] <= 0.236\ngini = 0.79\nsamples = 9\nvalue = [0, 0, 1, 2, 1, 3, 1, 0, 1, 0]"] ;
242 -> 243 ;
244 [label="X[2] <= -0.001\ngini = 0.735\nsamples = 7\nvalue = [0, 0, 1, 0, 1, 3, 1, 0, 1, 0]"] ;
243 -> 244 ;
245 [label="X[5] <= 0.129\ngini = 0.75\nsamples = 4\nvalue = [0, 0, 1, 0, 1, 0, 1, 0, 1, 0]"] ;
244 -> 245 ;
246 [label="gini = 0.0\nsamples = 1\nvalue = [0, 0, 0, 0, 0, 0, 0, 0, 1, 0]"] ;
245 -> 246 ;
247 [label="X[7] <= 0.162\ngini = 0.667\nsamples = 3\nvalue = [0, 0, 1, 0, 1, 0, 1, 0, 0, 0]"] ;
245 -> 247 ;
248 [label="gini = 0.0\nsamples = 1\nvalue = [0, 0, 0, 0, 1, 0, 0, 0, 0, 0]"] ;
247 -> 248 ;
249 [label="X[10] <= 0.025\ngini = 0.5\nsamples = 2\nvalue = [0, 0, 1, 0, 0, 0, 1, 0, 0, 0]"] ;
247 -> 249 ;
250 [label="gini = 0.0\nsamples = 1\nvalue = [0, 0, 1, 0, 0, 0, 0, 0, 0, 0]"] ;
249 -> 250 ;
251 [label="gini = 0.0\nsamples = 1\nvalue = [0, 0, 0, 0, 0, 0, 1, 0, 0, 0]"] ;
249 -> 251 ;
252 [label="gini = 0.0\nsamples = 3\nvalue = [0, 0, 0, 0, 0, 3, 0, 0, 0, 0]"] ;
244 -> 252 ;
253 [label="gini = 0.0\nsamples = 2\nvalue = [0, 0, 0, 2, 0, 0, 0, 0, 0, 0]"] ;
243 -> 253 ;
254 [label="X[1] <= 211.025\ngini = 0.187\nsamples = 131\nvalue = [0, 0, 4, 0, 2, 1, 118, 2, 2, 2]"] ;
242 -> 254 ;
255 [label="X[11] <= 0.168\ngini = 0.602\nsamples = 16\nvalue = [0, 0, 4, 0, 0, 0, 9, 0, 2, 1]"] ;
254 -> 255 ;
256 [label="X[5] <= 0.478\ngini = 0.444\nsamples = 6\nvalue = [0, 0, 4, 0, 0, 0, 0, 0, 2, 0]"] ;
255 -> 256 ;
257 [label="gini = 0.0\nsamples = 2\nvalue = [0, 0, 0, 0, 0, 0, 0, 0, 2, 0]"] ;
256 -> 257 ;
258 [label="gini = 0.0\nsamples = 4\nvalue = [0, 0, 4, 0, 0, 0, 0, 0, 0, 0]"] ;
256 -> 258 ;
259 [label="X[9] <= 0.039\ngini = 0.18\nsamples = 10\nvalue = [0, 0, 0, 0, 0, 0, 9, 0, 0, 1]"] ;
255 -> 259 ;
260 [label="gini = 0.0\nsamples = 1\nvalue = [0, 0, 0, 0, 0, 0, 0, 0, 0, 1]"] ;
259 -> 260 ;
261 [label="gini = 0.0\nsamples = 9\nvalue = [0, 0, 0, 0, 0, 0, 9, 0, 0, 0]"] ;
259 -> 261 ;
262 [label="X[10] <= 0.112\ngini = 0.101\nsamples = 115\nvalue = [0, 0, 0, 0, 2, 1, 109, 2, 0, 1]"] ;
254 -> 262 ;
263 [label="X[3] <= 4.812\ngini = 0.021\nsamples = 96\nvalue = [0, 0, 0, 0, 0, 1, 95, 0, 0, 0]"] ;
262 -> 263 ;
264 [label="X[9] <= 0.056\ngini = 0.32\nsamples = 5\nvalue = [0, 0, 0, 0, 0, 1, 4, 0, 0, 0]"] ;
263 -> 264 ;
265 [label="gini = 0.0\nsamples = 1\nvalue = [0, 0, 0, 0, 0, 1, 0, 0, 0, 0]"] ;
264 -> 265 ;
266 [label="gini = 0.0\nsamples = 4\nvalue = [0, 0, 0, 0, 0, 0, 4, 0, 0, 0]"] ;
264 -> 266 ;
267 [label="gini = 0.0\nsamples = 91\nvalue = [0, 0, 0, 0, 0, 0, 91, 0, 0, 0]"] ;
263 -> 267 ;
268 [label="X[4] <= 2941.636\ngini = 0.432\nsamples = 19\nvalue = [0, 0, 0, 0, 2, 0, 14, 2, 0, 1]"] ;
262 -> 268 ;
269 [label="gini = 0.0\nsamples = 12\nvalue = [0, 0, 0, 0, 0, 0, 12, 0, 0, 0]"] ;
268 -> 269 ;
270 [label="X[0] <= 0.607\ngini = 0.735\nsamples = 7\nvalue = [0, 0, 0, 0, 2, 0, 2, 2, 0, 1]"] ;
268 -> 270 ;
271 [label="X[3] <= 5.973\ngini = 0.64\nsamples = 5\nvalue = [0, 0, 0, 0, 2, 0, 0, 2, 0, 1]"] ;
270 -> 271 ;
272 [label="gini = 0.0\nsamples = 2\nvalue = [0, 0, 0, 0, 0, 0, 0, 2, 0, 0]"] ;
271 -> 272 ;
273 [label="X[9] <= 0.04\ngini = 0.444\nsamples = 3\nvalue = [0, 0, 0, 0, 2, 0, 0, 0, 0, 1]"] ;
271 -> 273 ;
274 [label="gini = 0.0\nsamples = 1\nvalue = [0, 0, 0, 0, 0, 0, 0, 0, 0, 1]"] ;
273 -> 274 ;
275 [label="gini = 0.0\nsamples = 2\nvalue = [0, 0, 0, 0, 2, 0, 0, 0, 0, 0]"] ;
273 -> 275 ;
276 [label="gini = 0.0\nsamples = 2\nvalue = [0, 0, 0, 0, 0, 0, 2, 0, 0, 0]"] ;
270 -> 276 ;
277 [label="X[0] <= 0.464\ngini = 0.871\nsamples = 759\nvalue = [58, 39, 124, 133, 36, 72, 28, 108, 129, 32]"] ;
1 -> 277 ;
278 [label="X[8] <= 0.0\ngini = 0.782\nsamples = 218\nvalue = [7, 9, 74, 56, 17, 33, 1, 7, 14, 0]"] ;
277 -> 278 ;
279 [label="X[12] <= 0.04\ngini = 0.626\nsamples = 109\nvalue = [0, 4, 60, 27, 2, 8, 1, 3, 4, 0]"] ;
278 -> 279 ;
280 [label="X[4] <= 1254.321\ngini = 0.495\nsamples = 81\nvalue = [0, 4, 55, 16, 2, 3, 0, 1, 0, 0]"] ;
279 -> 280 ;
281 [label="X[12] <= 0.012\ngini = 0.278\nsamples = 6\nvalue = [0, 1, 0, 5, 0, 0, 0, 0, 0, 0]"] ;
280 -> 281 ;
282 [label="gini = 0.0\nsamples = 1\nvalue = [0, 1, 0, 0, 0, 0, 0, 0, 0, 0]"] ;
281 -> 282 ;
283 [label="gini = 0.0\nsamples = 5\nvalue = [0, 0, 0, 5, 0, 0, 0, 0, 0, 0]"] ;
281 -> 283 ;
284 [label="X[9] <= 0.025\ngini = 0.437\nsamples = 75\nvalue = [0, 3, 55, 11, 2, 3, 0, 1, 0, 0]"] ;
280 -> 284 ;
285 [label="X[11] <= 0.161\ngini = 0.573\nsamples = 29\nvalue = [0, 1, 16, 10, 1, 1, 0, 0, 0, 0]"] ;
284 -> 285 ;
286 [label="X[5] <= 0.236\ngini = 0.449\nsamples = 21\nvalue = [0, 1, 15, 4, 1, 0, 0, 0, 0, 0]"] ;
285 -> 286 ;
287 [label="X[3] <= 4.324\ngini = 0.667\nsamples = 6\nvalue = [0, 1, 1, 3, 1, 0, 0, 0, 0, 0]"] ;
286 -> 287 ;
288 [label="X[8] <= 0.0\ngini = 0.667\nsamples = 3\nvalue = [0, 1, 1, 0, 1, 0, 0, 0, 0, 0]"] ;
287 -> 288 ;
289 [label="gini = 0.0\nsamples = 1\nvalue = [0, 0, 1, 0, 0, 0, 0, 0, 0, 0]"] ;
288 -> 289 ;
290 [label="X[12] <= 0.018\ngini = 0.5\nsamples = 2\nvalue = [0, 1, 0, 0, 1, 0, 0, 0, 0, 0]"] ;
288 -> 290 ;
291 [label="gini = 0.0\nsamples = 1\nvalue = [0, 1, 0, 0, 0, 0, 0, 0, 0, 0]"] ;
290 -> 291 ;
292 [label="gini = 0.0\nsamples = 1\nvalue = [0, 0, 0, 0, 1, 0, 0, 0, 0, 0]"] ;
290 -> 292 ;
293 [label="gini = 0.0\nsamples = 3\nvalue = [0, 0, 0, 3, 0, 0, 0, 0, 0, 0]"] ;
287 -> 293 ;
294 [label="X[4] <= 1300.108\ngini = 0.124\nsamples = 15\nvalue = [0, 0, 14, 1, 0, 0, 0, 0, 0, 0]"] ;
286 -> 294 ;
295 [label="gini = 0.0\nsamples = 1\nvalue = [0, 0, 0, 1, 0, 0, 0, 0, 0, 0]"] ;
294 -> 295 ;
296 [label="gini = 0.0\nsamples = 14\nvalue = [0, 0, 14, 0, 0, 0, 0, 0, 0, 0]"] ;
294 -> 296 ;
297 [label="X[3] <= 4.707\ngini = 0.406\nsamples = 8\nvalue = [0, 0, 1, 6, 0, 1, 0, 0, 0, 0]"] ;
285 -> 297 ;
298 [label="gini = 0.0\nsamples = 6\nvalue = [0, 0, 0, 6, 0, 0, 0, 0, 0, 0]"] ;
297 -> 298 ;
299 [label="X[4] <= 2875.438\ngini = 0.5\nsamples = 2\nvalue = [0, 0, 1, 0, 0, 1, 0, 0, 0, 0]"] ;
297 -> 299 ;
300 [label="gini = 0.0\nsamples = 1\nvalue = [0, 0, 1, 0, 0, 0, 0, 0, 0, 0]"] ;
299 -> 300 ;
301 [label="gini = 0.0\nsamples = 1\nvalue = [0, 0, 0, 0, 0, 1, 0, 0, 0, 0]"] ;
299 -> 301 ;
302 [label="X[10] <= 0.386\ngini = 0.276\nsamples = 46\nvalue = [0, 2, 39, 1, 1, 2, 0, 1, 0, 0]"] ;
284 -> 302 ;
303 [label="X[10] <= 0.155\ngini = 0.211\nsamples = 44\nvalue = [0, 2, 39, 1, 1, 1, 0, 0, 0, 0]"] ;
302 -> 303 ;
304 [label="X[12] <= 0.009\ngini = 0.64\nsamples = 5\nvalue = [0, 2, 2, 0, 0, 1, 0, 0, 0, 0]"] ;
303 -> 304 ;
305 [label="X[4] <= 3228.155\ngini = 0.444\nsamples = 3\nvalue = [0, 2, 0, 0, 0, 1, 0, 0, 0, 0]"] ;
304 -> 305 ;
306 [label="gini = 0.0\nsamples = 2\nvalue = [0, 2, 0, 0, 0, 0, 0, 0, 0, 0]"] ;
305 -> 306 ;
307 [label="gini = 0.0\nsamples = 1\nvalue = [0, 0, 0, 0, 0, 1, 0, 0, 0, 0]"] ;
305 -> 307 ;
308 [label="gini = 0.0\nsamples = 2\nvalue = [0, 0, 2, 0, 0, 0, 0, 0, 0, 0]"] ;
304 -> 308 ;
309 [label="X[11] <= 0.029\ngini = 0.099\nsamples = 39\nvalue = [0, 0, 37, 1, 1, 0, 0, 0, 0, 0]"] ;
303 -> 309 ;
310 [label="gini = 0.0\nsamples = 1\nvalue = [0, 0, 0, 0, 1, 0, 0, 0, 0, 0]"] ;
309 -> 310 ;
311 [label="X[9] <= 0.252\ngini = 0.051\nsamples = 38\nvalue = [0, 0, 37, 1, 0, 0, 0, 0, 0, 0]"] ;
309 -> 311 ;
312 [label="gini = 0.0\nsamples = 37\nvalue = [0, 0, 37, 0, 0, 0, 0, 0, 0, 0]"] ;
311 -> 312 ;
313 [label="gini = 0.0\nsamples = 1\nvalue = [0, 0, 0, 1, 0, 0, 0, 0, 0, 0]"] ;
311 -> 313 ;
314 [label="X[12] <= 0.021\ngini = 0.5\nsamples = 2\nvalue = [0, 0, 0, 0, 0, 1, 0, 1, 0, 0]"] ;
302 -> 314 ;
315 [label="gini = 0.0\nsamples = 1\nvalue = [0, 0, 0, 0, 0, 1, 0, 0, 0, 0]"] ;
314 -> 315 ;
316 [label="gini = 0.0\nsamples = 1\nvalue = [0, 0, 0, 0, 0, 0, 0, 1, 0, 0]"] ;
314 -> 316 ;
317 [label="X[11] <= 0.135\ngini = 0.755\nsamples = 28\nvalue = [0, 0, 5, 11, 0, 5, 1, 2, 4, 0]"] ;
279 -> 317 ;
318 [label="X[12] <= 0.049\ngini = 0.656\nsamples = 8\nvalue = [0, 0, 1, 0, 0, 0, 1, 2, 4, 0]"] ;
317 -> 318 ;
319 [label="gini = 0.0\nsamples = 3\nvalue = [0, 0, 0, 0, 0, 0, 0, 0, 3, 0]"] ;
318 -> 319 ;
320 [label="X[11] <= 0.105\ngini = 0.72\nsamples = 5\nvalue = [0, 0, 1, 0, 0, 0, 1, 2, 1, 0]"] ;
318 -> 320 ;
321 [label="gini = 0.0\nsamples = 2\nvalue = [0, 0, 0, 0, 0, 0, 0, 2, 0, 0]"] ;
320 -> 321 ;
322 [label="X[1] <= 279.554\ngini = 0.667\nsamples = 3\nvalue = [0, 0, 1, 0, 0, 0, 1, 0, 1, 0]"] ;
320 -> 322 ;
323 [label="gini = 0.0\nsamples = 1\nvalue = [0, 0, 0, 0, 0, 0, 1, 0, 0, 0]"] ;
322 -> 323 ;
324 [label="X[1] <= 295.554\ngini = 0.5\nsamples = 2\nvalue = [0, 0, 1, 0, 0, 0, 0, 0, 1, 0]"] ;
322 -> 324 ;
325 [label="gini = 0.0\nsamples = 1\nvalue = [0, 0, 0, 0, 0, 0, 0, 0, 1, 0]"] ;
324 -> 325 ;
326 [label="gini = 0.0\nsamples = 1\nvalue = [0, 0, 1, 0, 0, 0, 0, 0, 0, 0]"] ;
324 -> 326 ;
327 [label="X[6] <= 1.586\ngini = 0.595\nsamples = 20\nvalue = [0, 0, 4, 11, 0, 5, 0, 0, 0, 0]"] ;
317 -> 327 ;
328 [label="X[4] <= 1161.989\ngini = 0.642\nsamples = 9\nvalue = [0, 0, 4, 2, 0, 3, 0, 0, 0, 0]"] ;
327 -> 328 ;
329 [label="gini = 0.0\nsamples = 2\nvalue = [0, 0, 0, 2, 0, 0, 0, 0, 0, 0]"] ;
328 -> 329 ;
330 [label="X[7] <= 0.172\ngini = 0.49\nsamples = 7\nvalue = [0, 0, 4, 0, 0, 3, 0, 0, 0, 0]"] ;
328 -> 330 ;
331 [label="X[0] <= 0.393\ngini = 0.375\nsamples = 4\nvalue = [0, 0, 1, 0, 0, 3, 0, 0, 0, 0]"] ;
330 -> 331 ;
332 [label="gini = 0.0\nsamples = 1\nvalue = [0, 0, 1, 0, 0, 0, 0, 0, 0, 0]"] ;
331 -> 332 ;
333 [label="gini = 0.0\nsamples = 3\nvalue = [0, 0, 0, 0, 0, 3, 0, 0, 0, 0]"] ;
331 -> 333 ;
334 [label="gini = 0.0\nsamples = 3\nvalue = [0, 0, 3, 0, 0, 0, 0, 0, 0, 0]"] ;
330 -> 334 ;
335 [label="X[2] <= 0.002\ngini = 0.298\nsamples = 11\nvalue = [0, 0, 0, 9, 0, 2, 0, 0, 0, 0]"] ;
327 -> 335 ;
336 [label="X[1] <= 295.554\ngini = 0.18\nsamples = 10\nvalue = [0, 0, 0, 9, 0, 1, 0, 0, 0, 0]"] ;
335 -> 336 ;
337 [label="gini = 0.0\nsamples = 9\nvalue = [0, 0, 0, 9, 0, 0, 0, 0, 0, 0]"] ;
336 -> 337 ;
338 [label="gini = 0.0\nsamples = 1\nvalue = [0, 0, 0, 0, 0, 1, 0, 0, 0, 0]"] ;
336 -> 338 ;
339 [label="gini = 0.0\nsamples = 1\nvalue = [0, 0, 0, 0, 0, 1, 0, 0, 0, 0]"] ;
335 -> 339 ;
340 [label="X[7] <= 0.075\ngini = 0.825\nsamples = 109\nvalue = [7, 5, 14, 29, 15, 25, 0, 4, 10, 0]"] ;
278 -> 340 ;
341 [label="X[6] <= 0.666\ngini = 0.298\nsamples = 11\nvalue = [0, 0, 0, 9, 0, 2, 0, 0, 0, 0]"] ;
340 -> 341 ;
342 [label="X[8] <= 0.001\ngini = 0.18\nsamples = 10\nvalue = [0, 0, 0, 9, 0, 1, 0, 0, 0, 0]"] ;
341 -> 342 ;
343 [label="X[8] <= 0.0\ngini = 0.5\nsamples = 2\nvalue = [0, 0, 0, 1, 0, 1, 0, 0, 0, 0]"] ;
342 -> 343 ;
344 [label="gini = 0.0\nsamples = 1\nvalue = [0, 0, 0, 1, 0, 0, 0, 0, 0, 0]"] ;
343 -> 344 ;
345 [label="gini = 0.0\nsamples = 1\nvalue = [0, 0, 0, 0, 0, 1, 0, 0, 0, 0]"] ;
343 -> 345 ;
346 [label="gini = 0.0\nsamples = 8\nvalue = [0, 0, 0, 8, 0, 0, 0, 0, 0, 0]"] ;
342 -> 346 ;
347 [label="gini = 0.0\nsamples = 1\nvalue = [0, 0, 0, 0, 0, 1, 0, 0, 0, 0]"] ;
341 -> 347 ;
348 [label="X[12] <= 0.087\ngini = 0.84\nsamples = 98\nvalue = [7, 5, 14, 20, 15, 23, 0, 4, 10, 0]"] ;
340 -> 348 ;
349 [label="X[11] <= 0.211\ngini = 0.804\nsamples = 78\nvalue = [6, 0, 14, 18, 15, 20, 0, 2, 3, 0]"] ;
348 -> 349 ;
350 [label="X[10] <= 0.247\ngini = 0.811\nsamples = 60\nvalue = [5, 0, 13, 9, 15, 13, 0, 2, 3, 0]"] ;
349 -> 350 ;
351 [label="X[1] <= 141.828\ngini = 0.789\nsamples = 36\nvalue = [3, 0, 13, 6, 4, 6, 0, 2, 2, 0]"] ;
350 -> 351 ;
352 [label="gini = 0.0\nsamples = 3\nvalue = [3, 0, 0, 0, 0, 0, 0, 0, 0, 0]"] ;
351 -> 352 ;
353 [label="X[12] <= 0.015\ngini = 0.757\nsamples = 33\nvalue = [0, 0, 13, 6, 4, 6, 0, 2, 2, 0]"] ;
351 -> 353 ;
354 [label="X[3] <= 4.78\ngini = 0.531\nsamples = 8\nvalue = [0, 0, 1, 5, 0, 2, 0, 0, 0, 0]"] ;
353 -> 354 ;
355 [label="X[4] <= 4272.105\ngini = 0.444\nsamples = 3\nvalue = [0, 0, 1, 0, 0, 2, 0, 0, 0, 0]"] ;
354 -> 355 ;
356 [label="gini = 0.0\nsamples = 2\nvalue = [0, 0, 0, 0, 0, 2, 0, 0, 0, 0]"] ;
355 -> 356 ;
357 [label="gini = 0.0\nsamples = 1\nvalue = [0, 0, 1, 0, 0, 0, 0, 0, 0, 0]"] ;
355 -> 357 ;
358 [label="gini = 0.0\nsamples = 5\nvalue = [0, 0, 0, 5, 0, 0, 0, 0, 0, 0]"] ;
354 -> 358 ;
359 [label="X[10] <= 0.172\ngini = 0.704\nsamples = 25\nvalue = [0, 0, 12, 1, 4, 4, 0, 2, 2, 0]"] ;
353 -> 359 ;
360 [label="X[1] <= 265.198\ngini = 0.56\nsamples = 5\nvalue = [0, 0, 0, 1, 0, 3, 0, 0, 1, 0]"] ;
359 -> 360 ;
361 [label="X[7] <= 1.12\ngini = 0.5\nsamples = 2\nvalue = [0, 0, 0, 1, 0, 0, 0, 0, 1, 0]"] ;
360 -> 361 ;
362 [label="gini = 0.0\nsamples = 1\nvalue = [0, 0, 0, 1, 0, 0, 0, 0, 0, 0]"] ;
361 -> 362 ;
363 [label="gini = 0.0\nsamples = 1\nvalue = [0, 0, 0, 0, 0, 0, 0, 0, 1, 0]"] ;
361 -> 363 ;
364 [label="gini = 0.0\nsamples = 3\nvalue = [0, 0, 0, 0, 0, 3, 0, 0, 0, 0]"] ;
360 -> 364 ;
365 [label="X[6] <= 1.268\ngini = 0.585\nsamples = 20\nvalue = [0, 0, 12, 0, 4, 1, 0, 2, 1, 0]"] ;
359 -> 365 ;
366 [label="X[9] <= 0.174\ngini = 0.292\nsamples = 12\nvalue = [0, 0, 10, 0, 0, 1, 0, 0, 1, 0]"] ;
365 -> 366 ;
367 [label="X[2] <= -0.001\ngini = 0.165\nsamples = 11\nvalue = [0, 0, 10, 0, 0, 1, 0, 0, 0, 0]"] ;
366 -> 367 ;
368 [label="gini = 0.0\nsamples = 1\nvalue = [0, 0, 0, 0, 0, 1, 0, 0, 0, 0]"] ;
367 -> 368 ;
369 [label="gini = 0.0\nsamples = 10\nvalue = [0, 0, 10, 0, 0, 0, 0, 0, 0, 0]"] ;
367 -> 369 ;
370 [label="gini = 0.0\nsamples = 1\nvalue = [0, 0, 0, 0, 0, 0, 0, 0, 1, 0]"] ;
366 -> 370 ;
371 [label="X[12] <= 0.031\ngini = 0.625\nsamples = 8\nvalue = [0, 0, 2, 0, 4, 0, 0, 2, 0, 0]"] ;
365 -> 371 ;
372 [label="X[10] <= 0.187\ngini = 0.444\nsamples = 6\nvalue = [0, 0, 2, 0, 4, 0, 0, 0, 0, 0]"] ;
371 -> 372 ;
373 [label="gini = 0.0\nsamples = 2\nvalue = [0, 0, 2, 0, 0, 0, 0, 0, 0, 0]"] ;
372 -> 373 ;
374 [label="gini = 0.0\nsamples = 4\nvalue = [0, 0, 0, 0, 4, 0, 0, 0, 0, 0]"] ;
372 -> 374 ;
375 [label="gini = 0.0\nsamples = 2\nvalue = [0, 0, 0, 0, 0, 0, 0, 2, 0, 0]"] ;
371 -> 375 ;
376 [label="X[4] <= 3210.73\ngini = 0.681\nsamples = 24\nvalue = [2, 0, 0, 3, 11, 7, 0, 0, 1, 0]"] ;
350 -> 376 ;
377 [label="X[12] <= 0.023\ngini = 0.583\nsamples = 12\nvalue = [0, 0, 0, 3, 1, 7, 0, 0, 1, 0]"] ;
376 -> 377 ;
378 [label="X[1] <= 196.875\ngini = 0.245\nsamples = 7\nvalue = [0, 0, 0, 1, 0, 6, 0, 0, 0, 0]"] ;
377 -> 378 ;
379 [label="gini = 0.0\nsamples = 1\nvalue = [0, 0, 0, 1, 0, 0, 0, 0, 0, 0]"] ;
378 -> 379 ;
380 [label="gini = 0.0\nsamples = 6\nvalue = [0, 0, 0, 0, 0, 6, 0, 0, 0, 0]"] ;
378 -> 380 ;
381 [label="X[9] <= 0.163\ngini = 0.72\nsamples = 5\nvalue = [0, 0, 0, 2, 1, 1, 0, 0, 1, 0]"] ;
377 -> 381 ;
382 [label="X[9] <= 0.085\ngini = 0.667\nsamples = 3\nvalue = [0, 0, 0, 0, 1, 1, 0, 0, 1, 0]"] ;
381 -> 382 ;
383 [label="gini = 0.0\nsamples = 1\nvalue = [0, 0, 0, 0, 1, 0, 0, 0, 0, 0]"] ;
382 -> 383 ;
384 [label="X[0] <= 0.357\ngini = 0.5\nsamples = 2\nvalue = [0, 0, 0, 0, 0, 1, 0, 0, 1, 0]"] ;
382 -> 384 ;
385 [label="gini = 0.0\nsamples = 1\nvalue = [0, 0, 0, 0, 0, 1, 0, 0, 0, 0]"] ;
384 -> 385 ;
386 [label="gini = 0.0\nsamples = 1\nvalue = [0, 0, 0, 0, 0, 0, 0, 0, 1, 0]"] ;
384 -> 386 ;
387 [label="gini = 0.0\nsamples = 2\nvalue = [0, 0, 0, 2, 0, 0, 0, 0, 0, 0]"] ;
381 -> 387 ;
388 [label="X[3] <= 6.085\ngini = 0.278\nsamples = 12\nvalue = [2, 0, 0, 0, 10, 0, 0, 0, 0, 0]"] ;
376 -> 388 ;
389 [label="gini = 0.0\nsamples = 9\nvalue = [0, 0, 0, 0, 9, 0, 0, 0, 0, 0]"] ;
388 -> 389 ;
390 [label="X[4] <= 4512.255\ngini = 0.444\nsamples = 3\nvalue = [2, 0, 0, 0, 1, 0, 0, 0, 0, 0]"] ;
388 -> 390 ;
391 [label="gini = 0.0\nsamples = 2\nvalue = [2, 0, 0, 0, 0, 0, 0, 0, 0, 0]"] ;
390 -> 391 ;
392 [label="gini = 0.0\nsamples = 1\nvalue = [0, 0, 0, 0, 1, 0, 0, 0, 0, 0]"] ;
390 -> 392 ;
393 [label="X[10] <= 0.353\ngini = 0.593\nsamples = 18\nvalue = [1, 0, 1, 9, 0, 7, 0, 0, 0, 0]"] ;
349 -> 393 ;
394 [label="X[3] <= 4.242\ngini = 0.612\nsamples = 14\nvalue = [1, 0, 1, 5, 0, 7, 0, 0, 0, 0]"] ;
393 -> 394 ;
395 [label="gini = 0.0\nsamples = 3\nvalue = [0, 0, 0, 3, 0, 0, 0, 0, 0, 0]"] ;
394 -> 395 ;
396 [label="X[7] <= 0.361\ngini = 0.545\nsamples = 11\nvalue = [1, 0, 1, 2, 0, 7, 0, 0, 0, 0]"] ;
394 -> 396 ;
397 [label="gini = 0.0\nsamples = 6\nvalue = [0, 0, 0, 0, 0, 6, 0, 0, 0, 0]"] ;
396 -> 397 ;
398 [label="X[9] <= 0.041\ngini = 0.72\nsamples = 5\nvalue = [1, 0, 1, 2, 0, 1, 0, 0, 0, 0]"] ;
396 -> 398 ;
399 [label="gini = 0.0\nsamples = 2\nvalue = [0, 0, 0, 2, 0, 0, 0, 0, 0, 0]"] ;
398 -> 399 ;
400 [label="X[2] <= -0.0\ngini = 0.667\nsamples = 3\nvalue = [1, 0, 1, 0, 0, 1, 0, 0, 0, 0]"] ;
398 -> 400 ;
401 [label="gini = 0.0\nsamples = 1\nvalue = [0, 0, 1, 0, 0, 0, 0, 0, 0, 0]"] ;
400 -> 401 ;
402 [label="X[5] <= 1.153\ngini = 0.5\nsamples = 2\nvalue = [1, 0, 0, 0, 0, 1, 0, 0, 0, 0]"] ;
400 -> 402 ;
403 [label="gini = 0.0\nsamples = 1\nvalue = [1, 0, 0, 0, 0, 0, 0, 0, 0, 0]"] ;
402 -> 403 ;
404 [label="gini = 0.0\nsamples = 1\nvalue = [0, 0, 0, 0, 0, 1, 0, 0, 0, 0]"] ;
402 -> 404 ;
405 [label="gini = 0.0\nsamples = 4\nvalue = [0, 0, 0, 4, 0, 0, 0, 0, 0, 0]"] ;
393 -> 405 ;
406 [label="X[9] <= 0.188\ngini = 0.77\nsamples = 20\nvalue = [1, 5, 0, 2, 0, 3, 0, 2, 7, 0]"] ;
348 -> 406 ;
407 [label="X[7] <= 0.313\ngini = 0.757\nsamples = 13\nvalue = [1, 5, 0, 2, 0, 3, 0, 1, 1, 0]"] ;
406 -> 407 ;
408 [label="X[10] <= 0.189\ngini = 0.75\nsamples = 8\nvalue = [1, 0, 0, 2, 0, 3, 0, 1, 1, 0]"] ;
407 -> 408 ;
409 [label="gini = 0.0\nsamples = 2\nvalue = [0, 0, 0, 2, 0, 0, 0, 0, 0, 0]"] ;
408 -> 409 ;
410 [label="X[2] <= 0.0\ngini = 0.667\nsamples = 6\nvalue = [1, 0, 0, 0, 0, 3, 0, 1, 1, 0]"] ;
408 -> 410 ;
411 [label="gini = 0.0\nsamples = 3\nvalue = [0, 0, 0, 0, 0, 3, 0, 0, 0, 0]"] ;
410 -> 411 ;
412 [label="X[2] <= 0.0\ngini = 0.667\nsamples = 3\nvalue = [1, 0, 0, 0, 0, 0, 0, 1, 1, 0]"] ;
410 -> 412 ;
413 [label="gini = 0.0\nsamples = 1\nvalue = [0, 0, 0, 0, 0, 0, 0, 0, 1, 0]"] ;
412 -> 413 ;
414 [label="X[12] <= 0.103\ngini = 0.5\nsamples = 2\nvalue = [1, 0, 0, 0, 0, 0, 0, 1, 0, 0]"] ;
412 -> 414 ;
415 [label="gini = 0.0\nsamples = 1\nvalue = [0, 0, 0, 0, 0, 0, 0, 1, 0, 0]"] ;
414 -> 415 ;
416 [label="gini = 0.0\nsamples = 1\nvalue = [1, 0, 0, 0, 0, 0, 0, 0, 0, 0]"] ;
414 -> 416 ;
417 [label="gini = 0.0\nsamples = 5\nvalue = [0, 5, 0, 0, 0, 0, 0, 0, 0, 0]"] ;
407 -> 417 ;
418 [label="X[6] <= 1.816\ngini = 0.245\nsamples = 7\nvalue = [0, 0, 0, 0, 0, 0, 0, 1, 6, 0]"] ;
406 -> 418 ;
419 [label="gini = 0.0\nsamples = 5\nvalue = [0, 0, 0, 0, 0, 0, 0, 0, 5, 0]"] ;
418 -> 419 ;
420 [label="X[7] <= 0.668\ngini = 0.5\nsamples = 2\nvalue = [0, 0, 0, 0, 0, 0, 0, 1, 1, 0]"] ;
418 -> 420 ;
421 [label="gini = 0.0\nsamples = 1\nvalue = [0, 0, 0, 0, 0, 0, 0, 1, 0, 0]"] ;
420 -> 421 ;
422 [label="gini = 0.0\nsamples = 1\nvalue = [0, 0, 0, 0, 0, 0, 0, 0, 1, 0]"] ;
420 -> 422 ;
423 [label="X[4] <= 3009.656\ngini = 0.867\nsamples = 541\nvalue = [51, 30, 50, 77, 19, 39, 27, 101, 115, 32]"] ;
277 -> 423 ;
424 [label="X[12] <= 0.034\ngini = 0.805\nsamples = 306\nvalue = [6, 0, 34, 56, 2, 28, 17, 69, 90, 4]"] ;
423 -> 424 ;
425 [label="X[10] <= 0.247\ngini = 0.812\nsamples = 186\nvalue = [2, 0, 33, 51, 2, 22, 5, 29, 38, 4]"] ;
424 -> 425 ;
426 [label="X[2] <= 0.0\ngini = 0.818\nsamples = 101\nvalue = [2, 0, 26, 10, 2, 9, 5, 18, 25, 4]"] ;
425 -> 426 ;
427 [label="X[5] <= 1.581\ngini = 0.827\nsamples = 65\nvalue = [2, 0, 9, 8, 1, 6, 5, 17, 15, 2]"] ;
426 -> 427 ;
428 [label="X[6] <= 1.562\ngini = 0.832\nsamples = 60\nvalue = [2, 0, 9, 8, 1, 6, 5, 17, 10, 2]"] ;
427 -> 428 ;
429 [label="X[1] <= 169.852\ngini = 0.72\nsamples = 34\nvalue = [0, 0, 5, 1, 0, 2, 1, 15, 8, 2]"] ;
428 -> 429 ;
430 [label="X[3] <= 4.355\ngini = 0.68\nsamples = 10\nvalue = [0, 0, 5, 1, 0, 1, 1, 0, 0, 2]"] ;
429 -> 430 ;
431 [label="gini = 0.0\nsamples = 2\nvalue = [0, 0, 0, 0, 0, 0, 0, 0, 0, 2]"] ;
430 -> 431 ;
432 [label="X[11] <= 0.15\ngini = 0.562\nsamples = 8\nvalue = [0, 0, 5, 1, 0, 1, 1, 0, 0, 0]"] ;
430 -> 432 ;
433 [label="gini = 0.0\nsamples = 5\nvalue = [0, 0, 5, 0, 0, 0, 0, 0, 0, 0]"] ;
432 -> 433 ;
434 [label="X[10] <= 0.186\ngini = 0.667\nsamples = 3\nvalue = [0, 0, 0, 1, 0, 1, 1, 0, 0, 0]"] ;
432 -> 434 ;
435 [label="gini = 0.0\nsamples = 1\nvalue = [0, 0, 0, 0, 0, 0, 1, 0, 0, 0]"] ;
434 -> 435 ;
436 [label="X[5] <= 0.147\ngini = 0.5\nsamples = 2\nvalue = [0, 0, 0, 1, 0, 1, 0, 0, 0, 0]"] ;
434 -> 436 ;
437 [label="gini = 0.0\nsamples = 1\nvalue = [0, 0, 0, 1, 0, 0, 0, 0, 0, 0]"] ;
436 -> 437 ;
438 [label="gini = 0.0\nsamples = 1\nvalue = [0, 0, 0, 0, 0, 1, 0, 0, 0, 0]"] ;
436 -> 438 ;
439 [label="X[6] <= 0.541\ngini = 0.497\nsamples = 24\nvalue = [0, 0, 0, 0, 0, 1, 0, 15, 8, 0]"] ;
429 -> 439 ;
440 [label="gini = 0.0\nsamples = 6\nvalue = [0, 0, 0, 0, 0, 0, 0, 6, 0, 0]"] ;
439 -> 440 ;
441 [label="X[6] <= 1.188\ngini = 0.549\nsamples = 18\nvalue = [0, 0, 0, 0, 0, 1, 0, 9, 8, 0]"] ;
439 -> 441 ;
442 [label="X[9] <= 0.156\ngini = 0.486\nsamples = 12\nvalue = [0, 0, 0, 0, 0, 1, 0, 3, 8, 0]"] ;
441 -> 442 ;
443 [label="X[11] <= 0.191\ngini = 0.219\nsamples = 8\nvalue = [0, 0, 0, 0, 0, 1, 0, 0, 7, 0]"] ;
442 -> 443 ;
444 [label="gini = 0.0\nsamples = 7\nvalue = [0, 0, 0, 0, 0, 0, 0, 0, 7, 0]"] ;
443 -> 444 ;
445 [label="gini = 0.0\nsamples = 1\nvalue = [0, 0, 0, 0, 0, 1, 0, 0, 0, 0]"] ;
443 -> 445 ;
446 [label="X[1] <= 191.669\ngini = 0.375\nsamples = 4\nvalue = [0, 0, 0, 0, 0, 0, 0, 3, 1, 0]"] ;
442 -> 446 ;
447 [label="gini = 0.0\nsamples = 1\nvalue = [0, 0, 0, 0, 0, 0, 0, 0, 1, 0]"] ;
446 -> 447 ;
448 [label="gini = 0.0\nsamples = 3\nvalue = [0, 0, 0, 0, 0, 0, 0, 3, 0, 0]"] ;
446 -> 448 ;
449 [label="gini = 0.0\nsamples = 6\nvalue = [0, 0, 0, 0, 0, 0, 0, 6, 0, 0]"] ;
441 -> 449 ;
450 [label="X[7] <= 0.467\ngini = 0.837\nsamples = 26\nvalue = [2, 0, 4, 7, 1, 4, 4, 2, 2, 0]"] ;
428 -> 450 ;
451 [label="X[10] <= 0.145\ngini = 0.82\nsamples = 23\nvalue = [2, 0, 1, 7, 1, 4, 4, 2, 2, 0]"] ;
450 -> 451 ;
452 [label="gini = 0.0\nsamples = 3\nvalue = [0, 0, 0, 0, 0, 0, 3, 0, 0, 0]"] ;
451 -> 452 ;
453 [label="X[4] <= 2243.249\ngini = 0.8\nsamples = 20\nvalue = [2, 0, 1, 7, 1, 4, 1, 2, 2, 0]"] ;
451 -> 453 ;
454 [label="X[1] <= 126.349\ngini = 0.597\nsamples = 12\nvalue = [0, 0, 1, 7, 0, 2, 0, 0, 2, 0]"] ;
453 -> 454 ;
455 [label="gini = 0.0\nsamples = 2\nvalue = [0, 0, 0, 0, 0, 0, 0, 0, 2, 0]"] ;
454 -> 455 ;
456 [label="X[8] <= 0.01\ngini = 0.46\nsamples = 10\nvalue = [0, 0, 1, 7, 0, 2, 0, 0, 0, 0]"] ;
454 -> 456 ;
457 [label="X[12] <= 0.002\ngini = 0.219\nsamples = 8\nvalue = [0, 0, 1, 7, 0, 0, 0, 0, 0, 0]"] ;
456 -> 457 ;
458 [label="gini = 0.0\nsamples = 1\nvalue = [0, 0, 1, 0, 0, 0, 0, 0, 0, 0]"] ;
457 -> 458 ;
459 [label="gini = 0.0\nsamples = 7\nvalue = [0, 0, 0, 7, 0, 0, 0, 0, 0, 0]"] ;
457 -> 459 ;
460 [label="gini = 0.0\nsamples = 2\nvalue = [0, 0, 0, 0, 0, 2, 0, 0, 0, 0]"] ;
456 -> 460 ;
461 [label="X[0] <= 0.786\ngini = 0.781\nsamples = 8\nvalue = [2, 0, 0, 0, 1, 2, 1, 2, 0, 0]"] ;
453 -> 461 ;
462 [label="X[7] <= 0.434\ngini = 0.722\nsamples = 6\nvalue = [0, 0, 0, 0, 1, 2, 1, 2, 0, 0]"] ;
461 -> 462 ;
463 [label="X[5] <= 0.567\ngini = 0.625\nsamples = 4\nvalue = [0, 0, 0, 0, 1, 2, 1, 0, 0, 0]"] ;
462 -> 463 ;
464 [label="X[11] <= 0.187\ngini = 0.5\nsamples = 2\nvalue = [0, 0, 0, 0, 1, 0, 1, 0, 0, 0]"] ;
463 -> 464 ;
465 [label="gini = 0.0\nsamples = 1\nvalue = [0, 0, 0, 0, 0, 0, 1, 0, 0, 0]"] ;
464 -> 465 ;
466 [label="gini = 0.0\nsamples = 1\nvalue = [0, 0, 0, 0, 1, 0, 0, 0, 0, 0]"] ;
464 -> 466 ;
467 [label="gini = 0.0\nsamples = 2\nvalue = [0, 0, 0, 0, 0, 2, 0, 0, 0, 0]"] ;
463 -> 467 ;
468 [label="gini = 0.0\nsamples = 2\nvalue = [0, 0, 0, 0, 0, 0, 0, 2, 0, 0]"] ;
462 -> 468 ;
469 [label="gini = 0.0\nsamples = 2\nvalue = [2, 0, 0, 0, 0, 0, 0, 0, 0, 0]"] ;
461 -> 469 ;
470 [label="gini = 0.0\nsamples = 3\nvalue = [0, 0, 3, 0, 0, 0, 0, 0, 0, 0]"] ;
450 -> 470 ;
471 [label="gini = 0.0\nsamples = 5\nvalue = [0, 0, 0, 0, 0, 0, 0, 0, 5, 0]"] ;
427 -> 471 ;
472 [label="X[12] <= 0.016\ngini = 0.685\nsamples = 36\nvalue = [0, 0, 17, 2, 1, 3, 0, 1, 10, 2]"] ;
426 -> 472 ;
473 [label="X[6] <= 2.79\ngini = 0.499\nsamples = 19\nvalue = [0, 0, 13, 1, 1, 3, 0, 0, 1, 0]"] ;
472 -> 473 ;
474 [label="X[3] <= 4.238\ngini = 0.401\nsamples = 17\nvalue = [0, 0, 13, 1, 1, 1, 0, 0, 1, 0]"] ;
473 -> 474 ;
475 [label="X[5] <= 0.147\ngini = 0.5\nsamples = 2\nvalue = [0, 0, 0, 0, 1, 1, 0, 0, 0, 0]"] ;
474 -> 475 ;
476 [label="gini = 0.0\nsamples = 1\nvalue = [0, 0, 0, 0, 0, 1, 0, 0, 0, 0]"] ;
475 -> 476 ;
477 [label="gini = 0.0\nsamples = 1\nvalue = [0, 0, 0, 0, 1, 0, 0, 0, 0, 0]"] ;
475 -> 477 ;
478 [label="X[6] <= 0.516\ngini = 0.24\nsamples = 15\nvalue = [0, 0, 13, 1, 0, 0, 0, 0, 1, 0]"] ;
474 -> 478 ;
479 [label="gini = 0.0\nsamples = 1\nvalue = [0, 0, 0, 0, 0, 0, 0, 0, 1, 0]"] ;
478 -> 479 ;
480 [label="X[12] <= 0.003\ngini = 0.133\nsamples = 14\nvalue = [0, 0, 13, 1, 0, 0, 0, 0, 0, 0]"] ;
478 -> 480 ;
481 [label="gini = 0.0\nsamples = 1\nvalue = [0, 0, 0, 1, 0, 0, 0, 0, 0, 0]"] ;
480 -> 481 ;
482 [label="gini = 0.0\nsamples = 13\nvalue = [0, 0, 13, 0, 0, 0, 0, 0, 0, 0]"] ;
480 -> 482 ;
483 [label="gini = 0.0\nsamples = 2\nvalue = [0, 0, 0, 0, 0, 2, 0, 0, 0, 0]"] ;
473 -> 483 ;
484 [label="X[9] <= 0.127\ngini = 0.644\nsamples = 17\nvalue = [0, 0, 4, 1, 0, 0, 0, 1, 9, 2]"] ;
472 -> 484 ;
485 [label="X[2] <= 0.0\ngini = 0.74\nsamples = 10\nvalue = [0, 0, 4, 1, 0, 0, 0, 1, 2, 2]"] ;
484 -> 485 ;
486 [label="gini = 0.0\nsamples = 4\nvalue = [0, 0, 4, 0, 0, 0, 0, 0, 0, 0]"] ;
485 -> 486 ;
487 [label="X[7] <= 0.212\ngini = 0.722\nsamples = 6\nvalue = [0, 0, 0, 1, 0, 0, 0, 1, 2, 2]"] ;
485 -> 487 ;
488 [label="X[10] <= 0.161\ngini = 0.625\nsamples = 4\nvalue = [0, 0, 0, 1, 0, 0, 0, 1, 0, 2]"] ;
487 -> 488 ;
489 [label="X[6] <= 0.771\ngini = 0.5\nsamples = 2\nvalue = [0, 0, 0, 1, 0, 0, 0, 1, 0, 0]"] ;
488 -> 489 ;
490 [label="gini = 0.0\nsamples = 1\nvalue = [0, 0, 0, 1, 0, 0, 0, 0, 0, 0]"] ;
489 -> 490 ;
491 [label="gini = 0.0\nsamples = 1\nvalue = [0, 0, 0, 0, 0, 0, 0, 1, 0, 0]"] ;
489 -> 491 ;
492 [label="gini = 0.0\nsamples = 2\nvalue = [0, 0, 0, 0, 0, 0, 0, 0, 0, 2]"] ;
488 -> 492 ;
493 [label="gini = 0.0\nsamples = 2\nvalue = [0, 0, 0, 0, 0, 0, 0, 0, 2, 0]"] ;
487 -> 493 ;
494 [label="gini = 0.0\nsamples = 7\nvalue = [0, 0, 0, 0, 0, 0, 0, 0, 7, 0]"] ;
484 -> 494 ;
495 [label="X[1] <= 279.554\ngini = 0.697\nsamples = 85\nvalue = [0, 0, 7, 41, 0, 13, 0, 11, 13, 0]"] ;
425 -> 495 ;
496 [label="X[3] <= 6.212\ngini = 0.648\nsamples = 63\nvalue = [0, 0, 4, 33, 0, 2, 0, 11, 13, 0]"] ;
495 -> 496 ;
497 [label="X[3] <= 4.735\ngini = 0.382\nsamples = 26\nvalue = [0, 0, 1, 20, 0, 1, 0, 0, 4, 0]"] ;
496 -> 497 ;
498 [label="gini = 0.0\nsamples = 3\nvalue = [0, 0, 0, 0, 0, 0, 0, 0, 3, 0]"] ;
497 -> 498 ;
499 [label="X[6] <= 0.196\ngini = 0.238\nsamples = 23\nvalue = [0, 0, 1, 20, 0, 1, 0, 0, 1, 0]"] ;
497 -> 499 ;
500 [label="gini = 0.0\nsamples = 1\nvalue = [0, 0, 1, 0, 0, 0, 0, 0, 0, 0]"] ;
499 -> 500 ;
501 [label="X[5] <= 0.543\ngini = 0.169\nsamples = 22\nvalue = [0, 0, 0, 20, 0, 1, 0, 0, 1, 0]"] ;
499 -> 501 ;
502 [label="X[6] <= 2.595\ngini = 0.091\nsamples = 21\nvalue = [0, 0, 0, 20, 0, 1, 0, 0, 0, 0]"] ;
501 -> 502 ;
503 [label="gini = 0.0\nsamples = 20\nvalue = [0, 0, 0, 20, 0, 0, 0, 0, 0, 0]"] ;
502 -> 503 ;
504 [label="gini = 0.0\nsamples = 1\nvalue = [0, 0, 0, 0, 0, 1, 0, 0, 0, 0]"] ;
502 -> 504 ;
505 [label="gini = 0.0\nsamples = 1\nvalue = [0, 0, 0, 0, 0, 0, 0, 0, 1, 0]"] ;
501 -> 505 ;
506 [label="X[1] <= 215.707\ngini = 0.722\nsamples = 37\nvalue = [0, 0, 3, 13, 0, 1, 0, 11, 9, 0]"] ;
496 -> 506 ;
507 [label="X[5] <= 1.127\ngini = 0.649\nsamples = 22\nvalue = [0, 0, 2, 3, 0, 0, 0, 11, 6, 0]"] ;
506 -> 507 ;
508 [label="X[1] <= 161.657\ngini = 0.574\nsamples = 18\nvalue = [0, 0, 2, 2, 0, 0, 0, 11, 3, 0]"] ;
507 -> 508 ;
509 [label="X[9] <= 0.022\ngini = 0.694\nsamples = 7\nvalue = [0, 0, 1, 2, 0, 0, 0, 1, 3, 0]"] ;
508 -> 509 ;
510 [label="X[6] <= 2.365\ngini = 0.444\nsamples = 3\nvalue = [0, 0, 1, 2, 0, 0, 0, 0, 0, 0]"] ;
509 -> 510 ;
511 [label="gini = 0.0\nsamples = 1\nvalue = [0, 0, 1, 0, 0, 0, 0, 0, 0, 0]"] ;
510 -> 511 ;
512 [label="gini = 0.0\nsamples = 2\nvalue = [0, 0, 0, 2, 0, 0, 0, 0, 0, 0]"] ;
510 -> 512 ;
513 [label="X[10] <= 0.378\ngini = 0.375\nsamples = 4\nvalue = [0, 0, 0, 0, 0, 0, 0, 1, 3, 0]"] ;
509 -> 513 ;
514 [label="gini = 0.0\nsamples = 3\nvalue = [0, 0, 0, 0, 0, 0, 0, 0, 3, 0]"] ;
513 -> 514 ;
515 [label="gini = 0.0\nsamples = 1\nvalue = [0, 0, 0, 0, 0, 0, 0, 1, 0, 0]"] ;
513 -> 515 ;
516 [label="X[2] <= 0.001\ngini = 0.165\nsamples = 11\nvalue = [0, 0, 1, 0, 0, 0, 0, 10, 0, 0]"] ;
508 -> 516 ;
517 [label="gini = 0.0\nsamples = 10\nvalue = [0, 0, 0, 0, 0, 0, 0, 10, 0, 0]"] ;
516 -> 517 ;
518 [label="gini = 0.0\nsamples = 1\nvalue = [0, 0, 1, 0, 0, 0, 0, 0, 0, 0]"] ;
516 -> 518 ;
519 [label="X[6] <= 4.03\ngini = 0.375\nsamples = 4\nvalue = [0, 0, 0, 1, 0, 0, 0, 0, 3, 0]"] ;
507 -> 519 ;
520 [label="gini = 0.0\nsamples = 3\nvalue = [0, 0, 0, 0, 0, 0, 0, 0, 3, 0]"] ;
519 -> 520 ;
521 [label="gini = 0.0\nsamples = 1\nvalue = [0, 0, 0, 1, 0, 0, 0, 0, 0, 0]"] ;
519 -> 521 ;
522 [label="X[3] <= 7.118\ngini = 0.507\nsamples = 15\nvalue = [0, 0, 1, 10, 0, 1, 0, 0, 3, 0]"] ;
506 -> 522 ;
523 [label="X[4] <= 1954.784\ngini = 0.56\nsamples = 5\nvalue = [0, 0, 1, 0, 0, 1, 0, 0, 3, 0]"] ;
522 -> 523 ;
524 [label="X[0] <= 0.643\ngini = 0.5\nsamples = 2\nvalue = [0, 0, 1, 0, 0, 1, 0, 0, 0, 0]"] ;
523 -> 524 ;
525 [label="gini = 0.0\nsamples = 1\nvalue = [0, 0, 1, 0, 0, 0, 0, 0, 0, 0]"] ;
524 -> 525 ;
526 [label="gini = 0.0\nsamples = 1\nvalue = [0, 0, 0, 0, 0, 1, 0, 0, 0, 0]"] ;
524 -> 526 ;
527 [label="gini = 0.0\nsamples = 3\nvalue = [0, 0, 0, 0, 0, 0, 0, 0, 3, 0]"] ;
523 -> 527 ;
528 [label="gini = 0.0\nsamples = 10\nvalue = [0, 0, 0, 10, 0, 0, 0, 0, 0, 0]"] ;
522 -> 528 ;
529 [label="X[10] <= 0.329\ngini = 0.599\nsamples = 22\nvalue = [0, 0, 3, 8, 0, 11, 0, 0, 0, 0]"] ;
495 -> 529 ;
530 [label="X[4] <= 1948.821\ngini = 0.622\nsamples = 14\nvalue = [0, 0, 3, 7, 0, 4, 0, 0, 0, 0]"] ;
529 -> 530 ;
531 [label="gini = 0.0\nsamples = 3\nvalue = [0, 0, 0, 0, 0, 3, 0, 0, 0, 0]"] ;
530 -> 531 ;
532 [label="X[11] <= 0.167\ngini = 0.512\nsamples = 11\nvalue = [0, 0, 3, 7, 0, 1, 0, 0, 0, 0]"] ;
530 -> 532 ;
533 [label="X[6] <= 3.6\ngini = 0.219\nsamples = 8\nvalue = [0, 0, 1, 7, 0, 0, 0, 0, 0, 0]"] ;
532 -> 533 ;
534 [label="gini = 0.0\nsamples = 7\nvalue = [0, 0, 0, 7, 0, 0, 0, 0, 0, 0]"] ;
533 -> 534 ;
535 [label="gini = 0.0\nsamples = 1\nvalue = [0, 0, 1, 0, 0, 0, 0, 0, 0, 0]"] ;
533 -> 535 ;
536 [label="X[10] <= 0.269\ngini = 0.444\nsamples = 3\nvalue = [0, 0, 2, 0, 0, 1, 0, 0, 0, 0]"] ;
532 -> 536 ;
537 [label="gini = 0.0\nsamples = 2\nvalue = [0, 0, 2, 0, 0, 0, 0, 0, 0, 0]"] ;
536 -> 537 ;
538 [label="gini = 0.0\nsamples = 1\nvalue = [0, 0, 0, 0, 0, 1, 0, 0, 0, 0]"] ;
536 -> 538 ;
539 [label="X[6] <= 0.336\ngini = 0.219\nsamples = 8\nvalue = [0, 0, 0, 1, 0, 7, 0, 0, 0, 0]"] ;
529 -> 539 ;
540 [label="gini = 0.0\nsamples = 1\nvalue = [0, 0, 0, 1, 0, 0, 0, 0, 0, 0]"] ;
539 -> 540 ;
541 [label="gini = 0.0\nsamples = 7\nvalue = [0, 0, 0, 0, 0, 7, 0, 0, 0, 0]"] ;
539 -> 541 ;
542 [label="X[2] <= 0.0\ngini = 0.686\nsamples = 120\nvalue = [4, 0, 1, 5, 0, 6, 12, 40, 52, 0]"] ;
424 -> 542 ;
543 [label="X[1] <= 240.501\ngini = 0.702\nsamples = 93\nvalue = [4, 0, 1, 5, 0, 4, 10, 39, 30, 0]"] ;
542 -> 543 ;
544 [label="X[3] <= 6.489\ngini = 0.626\nsamples = 67\nvalue = [4, 0, 1, 2, 0, 3, 0, 32, 25, 0]"] ;
543 -> 544 ;
545 [label="X[3] <= 4.937\ngini = 0.558\nsamples = 35\nvalue = [4, 0, 0, 1, 0, 2, 0, 22, 6, 0]"] ;
544 -> 545 ;
546 [label="X[1] <= 193.097\ngini = 0.716\nsamples = 9\nvalue = [4, 0, 0, 1, 0, 1, 0, 2, 1, 0]"] ;
545 -> 546 ;
547 [label="X[4] <= 2827.758\ngini = 0.32\nsamples = 5\nvalue = [4, 0, 0, 0, 0, 1, 0, 0, 0, 0]"] ;
546 -> 547 ;
548 [label="gini = 0.0\nsamples = 4\nvalue = [4, 0, 0, 0, 0, 0, 0, 0, 0, 0]"] ;
547 -> 548 ;
549 [label="gini = 0.0\nsamples = 1\nvalue = [0, 0, 0, 0, 0, 1, 0, 0, 0, 0]"] ;
547 -> 549 ;
550 [label="X[3] <= 4.224\ngini = 0.625\nsamples = 4\nvalue = [0, 0, 0, 1, 0, 0, 0, 2, 1, 0]"] ;
546 -> 550 ;
551 [label="gini = 0.0\nsamples = 2\nvalue = [0, 0, 0, 0, 0, 0, 0, 2, 0, 0]"] ;
550 -> 551 ;
552 [label="X[9] <= 0.002\ngini = 0.5\nsamples = 2\nvalue = [0, 0, 0, 1, 0, 0, 0, 0, 1, 0]"] ;
550 -> 552 ;
553 [label="gini = 0.0\nsamples = 1\nvalue = [0, 0, 0, 0, 0, 0, 0, 0, 1, 0]"] ;
552 -> 553 ;
554 [label="gini = 0.0\nsamples = 1\nvalue = [0, 0, 0, 1, 0, 0, 0, 0, 0, 0]"] ;
552 -> 554 ;
555 [label="X[10] <= 0.155\ngini = 0.37\nsamples = 26\nvalue = [0, 0, 0, 0, 0, 1, 0, 20, 5, 0]"] ;
545 -> 555 ;
556 [label="gini = 0.0\nsamples = 4\nvalue = [0, 0, 0, 0, 0, 0, 0, 0, 4, 0]"] ;
555 -> 556 ;
557 [label="X[10] <= 0.313\ngini = 0.169\nsamples = 22\nvalue = [0, 0, 0, 0, 0, 1, 0, 20, 1, 0]"] ;
555 -> 557 ;
558 [label="X[9] <= 0.036\ngini = 0.091\nsamples = 21\nvalue = [0, 0, 0, 0, 0, 0, 0, 20, 1, 0]"] ;
557 -> 558 ;
559 [label="X[6] <= 1.054\ngini = 0.5\nsamples = 2\nvalue = [0, 0, 0, 0, 0, 0, 0, 1, 1, 0]"] ;
558 -> 559 ;
560 [label="gini = 0.0\nsamples = 1\nvalue = [0, 0, 0, 0, 0, 0, 0, 1, 0, 0]"] ;
559 -> 560 ;
561 [label="gini = 0.0\nsamples = 1\nvalue = [0, 0, 0, 0, 0, 0, 0, 0, 1, 0]"] ;
559 -> 561 ;
562 [label="gini = 0.0\nsamples = 19\nvalue = [0, 0, 0, 0, 0, 0, 0, 19, 0, 0]"] ;
558 -> 562 ;
563 [label="gini = 0.0\nsamples = 1\nvalue = [0, 0, 0, 0, 0, 1, 0, 0, 0, 0]"] ;
557 -> 563 ;
564 [label="X[6] <= 2.409\ngini = 0.547\nsamples = 32\nvalue = [0, 0, 1, 1, 0, 1, 0, 10, 19, 0]"] ;
544 -> 564 ;
565 [label="gini = 0.0\nsamples = 13\nvalue = [0, 0, 0, 0, 0, 0, 0, 0, 13, 0]"] ;
564 -> 565 ;
566 [label="X[12] <= 0.114\ngini = 0.615\nsamples = 19\nvalue = [0, 0, 1, 1, 0, 1, 0, 10, 6, 0]"] ;
564 -> 566 ;
567 [label="X[10] <= 0.431\ngini = 0.524\nsamples = 15\nvalue = [0, 0, 1, 1, 0, 1, 0, 10, 2, 0]"] ;
566 -> 567 ;
568 [label="X[9] <= 0.041\ngini = 0.391\nsamples = 13\nvalue = [0, 0, 1, 1, 0, 1, 0, 10, 0, 0]"] ;
567 -> 568 ;
569 [label="gini = 0.0\nsamples = 1\nvalue = [0, 0, 0, 1, 0, 0, 0, 0, 0, 0]"] ;
568 -> 569 ;
570 [label="X[1] <= 156.749\ngini = 0.292\nsamples = 12\nvalue = [0, 0, 1, 0, 0, 1, 0, 10, 0, 0]"] ;
568 -> 570 ;
571 [label="gini = 0.0\nsamples = 1\nvalue = [0, 0, 1, 0, 0, 0, 0, 0, 0, 0]"] ;
570 -> 571 ;
572 [label="X[0] <= 0.607\ngini = 0.165\nsamples = 11\nvalue = [0, 0, 0, 0, 0, 1, 0, 10, 0, 0]"] ;
570 -> 572 ;
573 [label="X[6] <= 2.938\ngini = 0.5\nsamples = 2\nvalue = [0, 0, 0, 0, 0, 1, 0, 1, 0, 0]"] ;
572 -> 573 ;
574 [label="gini = 0.0\nsamples = 1\nvalue = [0, 0, 0, 0, 0, 0, 0, 1, 0, 0]"] ;
573 -> 574 ;
575 [label="gini = 0.0\nsamples = 1\nvalue = [0, 0, 0, 0, 0, 1, 0, 0, 0, 0]"] ;
573 -> 575 ;
576 [label="gini = 0.0\nsamples = 9\nvalue = [0, 0, 0, 0, 0, 0, 0, 9, 0, 0]"] ;
572 -> 576 ;
577 [label="gini = 0.0\nsamples = 2\nvalue = [0, 0, 0, 0, 0, 0, 0, 0, 2, 0]"] ;
567 -> 577 ;
578 [label="gini = 0.0\nsamples = 4\nvalue = [0, 0, 0, 0, 0, 0, 0, 0, 4, 0]"] ;
566 -> 578 ;
579 [label="X[0] <= 0.607\ngini = 0.728\nsamples = 26\nvalue = [0, 0, 0, 3, 0, 1, 10, 7, 5, 0]"] ;
543 -> 579 ;
580 [label="X[6] <= 0.26\ngini = 0.75\nsamples = 20\nvalue = [0, 0, 0, 3, 0, 1, 4, 7, 5, 0]"] ;
579 -> 580 ;
581 [label="gini = 0.0\nsamples = 3\nvalue = [0, 0, 0, 0, 0, 0, 3, 0, 0, 0]"] ;
580 -> 581 ;
582 [label="X[8] <= 0.0\ngini = 0.706\nsamples = 17\nvalue = [0, 0, 0, 3, 0, 1, 1, 7, 5, 0]"] ;
580 -> 582 ;
583 [label="X[3] <= 7.369\ngini = 0.545\nsamples = 11\nvalue = [0, 0, 0, 1, 0, 0, 1, 7, 2, 0]"] ;
582 -> 583 ;
584 [label="X[10] <= 0.199\ngini = 0.46\nsamples = 10\nvalue = [0, 0, 0, 0, 0, 0, 1, 7, 2, 0]"] ;
583 -> 584 ;
585 [label="X[1] <= 252.246\ngini = 0.64\nsamples = 5\nvalue = [0, 0, 0, 0, 0, 0, 1, 2, 2, 0]"] ;
584 -> 585 ;
586 [label="gini = 0.0\nsamples = 2\nvalue = [0, 0, 0, 0, 0, 0, 0, 2, 0, 0]"] ;
585 -> 586 ;
587 [label="X[1] <= 279.554\ngini = 0.444\nsamples = 3\nvalue = [0, 0, 0, 0, 0, 0, 1, 0, 2, 0]"] ;
585 -> 587 ;
588 [label="gini = 0.0\nsamples = 2\nvalue = [0, 0, 0, 0, 0, 0, 0, 0, 2, 0]"] ;
587 -> 588 ;
589 [label="gini = 0.0\nsamples = 1\nvalue = [0, 0, 0, 0, 0, 0, 1, 0, 0, 0]"] ;
587 -> 589 ;
590 [label="gini = 0.0\nsamples = 5\nvalue = [0, 0, 0, 0, 0, 0, 0, 5, 0, 0]"] ;
584 -> 590 ;
591 [label="gini = 0.0\nsamples = 1\nvalue = [0, 0, 0, 1, 0, 0, 0, 0, 0, 0]"] ;
583 -> 591 ;
592 [label="X[10] <= 0.221\ngini = 0.611\nsamples = 6\nvalue = [0, 0, 0, 2, 0, 1, 0, 0, 3, 0]"] ;
582 -> 592 ;
593 [label="gini = 0.0\nsamples = 3\nvalue = [0, 0, 0, 0, 0, 0, 0, 0, 3, 0]"] ;
592 -> 593 ;
594 [label="X[11] <= 0.151\ngini = 0.444\nsamples = 3\nvalue = [0, 0, 0, 2, 0, 1, 0, 0, 0, 0]"] ;
592 -> 594 ;
595 [label="gini = 0.0\nsamples = 1\nvalue = [0, 0, 0, 0, 0, 1, 0, 0, 0, 0]"] ;
594 -> 595 ;
596 [label="gini = 0.0\nsamples = 2\nvalue = [0, 0, 0, 2, 0, 0, 0, 0, 0, 0]"] ;
594 -> 596 ;
597 [label="gini = 0.0\nsamples = 6\nvalue = [0, 0, 0, 0, 0, 0, 6, 0, 0, 0]"] ;
579 -> 597 ;
598 [label="X[11] <= 0.212\ngini = 0.324\nsamples = 27\nvalue = [0, 0, 0, 0, 0, 2, 2, 1, 22, 0]"] ;
542 -> 598 ;
599 [label="X[12] <= 0.113\ngini = 0.091\nsamples = 21\nvalue = [0, 0, 0, 0, 0, 0, 0, 1, 20, 0]"] ;
598 -> 599 ;
600 [label="gini = 0.0\nsamples = 18\nvalue = [0, 0, 0, 0, 0, 0, 0, 0, 18, 0]"] ;
599 -> 600 ;
601 [label="X[5] <= 0.629\ngini = 0.444\nsamples = 3\nvalue = [0, 0, 0, 0, 0, 0, 0, 1, 2, 0]"] ;
599 -> 601 ;
602 [label="gini = 0.0\nsamples = 2\nvalue = [0, 0, 0, 0, 0, 0, 0, 0, 2, 0]"] ;
601 -> 602 ;
603 [label="gini = 0.0\nsamples = 1\nvalue = [0, 0, 0, 0, 0, 0, 0, 1, 0, 0]"] ;
601 -> 603 ;
604 [label="X[4] <= 1731.282\ngini = 0.667\nsamples = 6\nvalue = [0, 0, 0, 0, 0, 2, 2, 0, 2, 0]"] ;
598 -> 604 ;
605 [label="gini = 0.0\nsamples = 2\nvalue = [0, 0, 0, 0, 0, 2, 0, 0, 0, 0]"] ;
604 -> 605 ;
606 [label="X[3] <= 7.452\ngini = 0.5\nsamples = 4\nvalue = [0, 0, 0, 0, 0, 0, 2, 0, 2, 0]"] ;
604 -> 606 ;
607 [label="gini = 0.0\nsamples = 2\nvalue = [0, 0, 0, 0, 0, 0, 2, 0, 0, 0]"] ;
606 -> 607 ;
608 [label="gini = 0.0\nsamples = 2\nvalue = [0, 0, 0, 0, 0, 0, 0, 0, 2, 0]"] ;
606 -> 608 ;
609 [label="X[11] <= 0.04\ngini = 0.881\nsamples = 235\nvalue = [45, 30, 16, 21, 17, 11, 10, 32, 25, 28]"] ;
423 -> 609 ;
610 [label="X[0] <= 0.75\ngini = 0.544\nsamples = 33\nvalue = [7, 21, 1, 2, 0, 1, 0, 1, 0, 0]"] ;
609 -> 610 ;
611 [label="X[2] <= 0.0\ngini = 0.418\nsamples = 28\nvalue = [3, 21, 1, 2, 0, 0, 0, 1, 0, 0]"] ;
610 -> 611 ;
612 [label="X[2] <= -0.002\ngini = 0.163\nsamples = 23\nvalue = [1, 21, 0, 0, 0, 0, 0, 1, 0, 0]"] ;
611 -> 612 ;
613 [label="gini = 0.0\nsamples = 1\nvalue = [0, 0, 0, 0, 0, 0, 0, 1, 0, 0]"] ;
612 -> 613 ;
614 [label="X[5] <= 0.145\ngini = 0.087\nsamples = 22\nvalue = [1, 21, 0, 0, 0, 0, 0, 0, 0, 0]"] ;
612 -> 614 ;
615 [label="gini = 0.0\nsamples = 1\nvalue = [1, 0, 0, 0, 0, 0, 0, 0, 0, 0]"] ;
614 -> 615 ;
616 [label="gini = 0.0\nsamples = 21\nvalue = [0, 21, 0, 0, 0, 0, 0, 0, 0, 0]"] ;
614 -> 616 ;
617 [label="X[4] <= 4591.053\ngini = 0.64\nsamples = 5\nvalue = [2, 0, 1, 2, 0, 0, 0, 0, 0, 0]"] ;
611 -> 617 ;
618 [label="X[3] <= 4.687\ngini = 0.444\nsamples = 3\nvalue = [0, 0, 1, 2, 0, 0, 0, 0, 0, 0]"] ;
617 -> 618 ;
619 [label="gini = 0.0\nsamples = 1\nvalue = [0, 0, 1, 0, 0, 0, 0, 0, 0, 0]"] ;
618 -> 619 ;
620 [label="gini = 0.0\nsamples = 2\nvalue = [0, 0, 0, 2, 0, 0, 0, 0, 0, 0]"] ;
618 -> 620 ;
621 [label="gini = 0.0\nsamples = 2\nvalue = [2, 0, 0, 0, 0, 0, 0, 0, 0, 0]"] ;
617 -> 621 ;
622 [label="X[10] <= 0.433\ngini = 0.32\nsamples = 5\nvalue = [4, 0, 0, 0, 0, 1, 0, 0, 0, 0]"] ;
610 -> 622 ;
623 [label="gini = 0.0\nsamples = 4\nvalue = [4, 0, 0, 0, 0, 0, 0, 0, 0, 0]"] ;
622 -> 623 ;
624 [label="gini = 0.0\nsamples = 1\nvalue = [0, 0, 0, 0, 0, 1, 0, 0, 0, 0]"] ;
622 -> 624 ;
625 [label="X[1] <= 154.302\ngini = 0.878\nsamples = 202\nvalue = [38, 9, 15, 19, 17, 10, 10, 31, 25, 28]"] ;
609 -> 625 ;
626 [label="X[6] <= 2.648\ngini = 0.733\nsamples = 41\nvalue = [19, 4, 6, 4, 3, 1, 0, 0, 1, 3]"] ;
625 -> 626 ;
627 [label="X[8] <= 0.006\ngini = 0.815\nsamples = 20\nvalue = [4, 2, 6, 2, 2, 1, 0, 0, 0, 3]"] ;
626 -> 627 ;
628 [label="X[7] <= 0.348\ngini = 0.775\nsamples = 17\nvalue = [4, 2, 6, 2, 2, 1, 0, 0, 0, 0]"] ;
627 -> 628 ;
629 [label="X[1] <= 143.666\ngini = 0.48\nsamples = 10\nvalue = [4, 0, 6, 0, 0, 0, 0, 0, 0, 0]"] ;
628 -> 629 ;
630 [label="X[4] <= 3285.105\ngini = 0.32\nsamples = 5\nvalue = [4, 0, 1, 0, 0, 0, 0, 0, 0, 0]"] ;
629 -> 630 ;
631 [label="gini = 0.0\nsamples = 1\nvalue = [0, 0, 1, 0, 0, 0, 0, 0, 0, 0]"] ;
630 -> 631 ;
632 [label="gini = 0.0\nsamples = 4\nvalue = [4, 0, 0, 0, 0, 0, 0, 0, 0, 0]"] ;
630 -> 632 ;
633 [label="gini = 0.0\nsamples = 5\nvalue = [0, 0, 5, 0, 0, 0, 0, 0, 0, 0]"] ;
629 -> 633 ;
634 [label="X[9] <= 0.105\ngini = 0.735\nsamples = 7\nvalue = [0, 2, 0, 2, 2, 1, 0, 0, 0, 0]"] ;
628 -> 634 ;
635 [label="X[12] <= 0.006\ngini = 0.64\nsamples = 5\nvalue = [0, 2, 0, 2, 0, 1, 0, 0, 0, 0]"] ;
634 -> 635 ;
636 [label="X[10] <= 0.173\ngini = 0.444\nsamples = 3\nvalue = [0, 0, 0, 2, 0, 1, 0, 0, 0, 0]"] ;
635 -> 636 ;
637 [label="gini = 0.0\nsamples = 1\nvalue = [0, 0, 0, 0, 0, 1, 0, 0, 0, 0]"] ;
636 -> 637 ;
638 [label="gini = 0.0\nsamples = 2\nvalue = [0, 0, 0, 2, 0, 0, 0, 0, 0, 0]"] ;
636 -> 638 ;
639 [label="gini = 0.0\nsamples = 2\nvalue = [0, 2, 0, 0, 0, 0, 0, 0, 0, 0]"] ;
635 -> 639 ;
640 [label="gini = 0.0\nsamples = 2\nvalue = [0, 0, 0, 0, 2, 0, 0, 0, 0, 0]"] ;
634 -> 640 ;
641 [label="gini = 0.0\nsamples = 3\nvalue = [0, 0, 0, 0, 0, 0, 0, 0, 0, 3]"] ;
627 -> 641 ;
642 [label="X[5] <= 0.944\ngini = 0.467\nsamples = 21\nvalue = [15, 2, 0, 2, 1, 0, 0, 0, 1, 0]"] ;
626 -> 642 ;
643 [label="gini = 0.0\nsamples = 10\nvalue = [10, 0, 0, 0, 0, 0, 0, 0, 0, 0]"] ;
642 -> 643 ;
644 [label="X[4] <= 5013.332\ngini = 0.711\nsamples = 11\nvalue = [5, 2, 0, 2, 1, 0, 0, 0, 1, 0]"] ;
642 -> 644 ;
645 [label="X[11] <= 0.078\ngini = 0.722\nsamples = 6\nvalue = [0, 2, 0, 2, 1, 0, 0, 0, 1, 0]"] ;
644 -> 645 ;
646 [label="gini = 0.0\nsamples = 2\nvalue = [0, 2, 0, 0, 0, 0, 0, 0, 0, 0]"] ;
645 -> 646 ;
647 [label="X[12] <= 0.009\ngini = 0.625\nsamples = 4\nvalue = [0, 0, 0, 2, 1, 0, 0, 0, 1, 0]"] ;
645 -> 647 ;
648 [label="gini = 0.0\nsamples = 2\nvalue = [0, 0, 0, 2, 0, 0, 0, 0, 0, 0]"] ;
647 -> 648 ;
649 [label="X[6] <= 2.953\ngini = 0.5\nsamples = 2\nvalue = [0, 0, 0, 0, 1, 0, 0, 0, 1, 0]"] ;
647 -> 649 ;
650 [label="gini = 0.0\nsamples = 1\nvalue = [0, 0, 0, 0, 1, 0, 0, 0, 0, 0]"] ;
649 -> 650 ;
651 [label="gini = 0.0\nsamples = 1\nvalue = [0, 0, 0, 0, 0, 0, 0, 0, 1, 0]"] ;
649 -> 651 ;
652 [label="gini = 0.0\nsamples = 5\nvalue = [5, 0, 0, 0, 0, 0, 0, 0, 0, 0]"] ;
644 -> 652 ;
653 [label="X[3] <= 8.408\ngini = 0.875\nsamples = 161\nvalue = [19, 5, 9, 15, 14, 9, 10, 31, 24, 25]"] ;
625 -> 653 ;
654 [label="X[11] <= 0.195\ngini = 0.866\nsamples = 142\nvalue = [8, 3, 7, 15, 14, 8, 10, 29, 23, 25]"] ;
653 -> 654 ;
655 [label="X[12] <= 0.056\ngini = 0.847\nsamples = 94\nvalue = [5, 3, 6, 4, 6, 8, 10, 27, 16, 9]"] ;
654 -> 655 ;
656 [label="X[9] <= 0.001\ngini = 0.839\nsamples = 68\nvalue = [5, 3, 6, 4, 6, 6, 0, 21, 8, 9]"] ;
655 -> 656 ;
657 [label="gini = 0.0\nsamples = 4\nvalue = [0, 0, 4, 0, 0, 0, 0, 0, 0, 0]"] ;
656 -> 657 ;
658 [label="X[9] <= 0.009\ngini = 0.826\nsamples = 64\nvalue = [5, 3, 2, 4, 6, 6, 0, 21, 8, 9]"] ;
656 -> 658 ;
659 [label="X[3] <= 5.629\ngini = 0.74\nsamples = 10\nvalue = [2, 2, 0, 1, 4, 1, 0, 0, 0, 0]"] ;
658 -> 659 ;
660 [label="X[3] <= 4.791\ngini = 0.32\nsamples = 5\nvalue = [1, 0, 0, 0, 4, 0, 0, 0, 0, 0]"] ;
659 -> 660 ;
661 [label="gini = 0.0\nsamples = 1\nvalue = [1, 0, 0, 0, 0, 0, 0, 0, 0, 0]"] ;
660 -> 661 ;
662 [label="gini = 0.0\nsamples = 4\nvalue = [0, 0, 0, 0, 4, 0, 0, 0, 0, 0]"] ;
660 -> 662 ;
663 [label="X[11] <= 0.1\ngini = 0.72\nsamples = 5\nvalue = [1, 2, 0, 1, 0, 1, 0, 0, 0, 0]"] ;
659 -> 663 ;
664 [label="gini = 0.0\nsamples = 2\nvalue = [0, 2, 0, 0, 0, 0, 0, 0, 0, 0]"] ;
663 -> 664 ;
665 [label="X[5] <= 0.226\ngini = 0.667\nsamples = 3\nvalue = [1, 0, 0, 1, 0, 1, 0, 0, 0, 0]"] ;
663 -> 665 ;
666 [label="gini = 0.0\nsamples = 1\nvalue = [0, 0, 0, 1, 0, 0, 0, 0, 0, 0]"] ;
665 -> 666 ;
667 [label="X[3] <= 5.951\ngini = 0.5\nsamples = 2\nvalue = [1, 0, 0, 0, 0, 1, 0, 0, 0, 0]"] ;
665 -> 667 ;
668 [label="gini = 0.0\nsamples = 1\nvalue = [0, 0, 0, 0, 0, 1, 0, 0, 0, 0]"] ;
667 -> 668 ;
669 [label="gini = 0.0\nsamples = 1\nvalue = [1, 0, 0, 0, 0, 0, 0, 0, 0, 0]"] ;
667 -> 669 ;
670 [label="X[5] <= 0.506\ngini = 0.781\nsamples = 54\nvalue = [3, 1, 2, 3, 2, 5, 0, 21, 8, 9]"] ;
658 -> 670 ;
671 [label="X[6] <= 2.088\ngini = 0.851\nsamples = 23\nvalue = [1, 1, 2, 2, 2, 2, 0, 4, 3, 6]"] ;
670 -> 671 ;
672 [label="X[7] <= 0.094\ngini = 0.851\nsamples = 17\nvalue = [1, 0, 2, 2, 2, 2, 0, 4, 3, 1]"] ;
671 -> 672 ;
673 [label="X[1] <= 229.801\ngini = 0.5\nsamples = 6\nvalue = [0, 0, 0, 0, 1, 1, 0, 4, 0, 0]"] ;
672 -> 673 ;
674 [label="gini = 0.0\nsamples = 4\nvalue = [0, 0, 0, 0, 0, 0, 0, 4, 0, 0]"] ;
673 -> 674 ;
675 [label="X[1] <= 269.453\ngini = 0.5\nsamples = 2\nvalue = [0, 0, 0, 0, 1, 1, 0, 0, 0, 0]"] ;
673 -> 675 ;
676 [label="gini = 0.0\nsamples = 1\nvalue = [0, 0, 0, 0, 0, 1, 0, 0, 0, 0]"] ;
675 -> 676 ;
677 [label="gini = 0.0\nsamples = 1\nvalue = [0, 0, 0, 0, 1, 0, 0, 0, 0, 0]"] ;
675 -> 677 ;
678 [label="X[2] <= 0.0\ngini = 0.826\nsamples = 11\nvalue = [1, 0, 2, 2, 1, 1, 0, 0, 3, 1]"] ;
672 -> 678 ;
679 [label="X[8] <= 0.0\ngini = 0.79\nsamples = 9\nvalue = [1, 0, 0, 2, 1, 1, 0, 0, 3, 1]"] ;
678 -> 679 ;
680 [label="X[10] <= 0.236\ngini = 0.375\nsamples = 4\nvalue = [0, 0, 0, 0, 0, 1, 0, 0, 3, 0]"] ;
679 -> 680 ;
681 [label="gini = 0.0\nsamples = 3\nvalue = [0, 0, 0, 0, 0, 0, 0, 0, 3, 0]"] ;
680 -> 681 ;
682 [label="gini = 0.0\nsamples = 1\nvalue = [0, 0, 0, 0, 0, 1, 0, 0, 0, 0]"] ;
680 -> 682 ;
683 [label="X[10] <= 0.366\ngini = 0.72\nsamples = 5\nvalue = [1, 0, 0, 2, 1, 0, 0, 0, 0, 1]"] ;
679 -> 683 ;
684 [label="X[11] <= 0.105\ngini = 0.667\nsamples = 3\nvalue = [1, 0, 0, 0, 1, 0, 0, 0, 0, 1]"] ;
683 -> 684 ;
685 [label="gini = 0.0\nsamples = 1\nvalue = [1, 0, 0, 0, 0, 0, 0, 0, 0, 0]"] ;
684 -> 685 ;
686 [label="X[8] <= 0.004\ngini = 0.5\nsamples = 2\nvalue = [0, 0, 0, 0, 1, 0, 0, 0, 0, 1]"] ;
684 -> 686 ;
687 [label="gini = 0.0\nsamples = 1\nvalue = [0, 0, 0, 0, 1, 0, 0, 0, 0, 0]"] ;
686 -> 687 ;
688 [label="gini = 0.0\nsamples = 1\nvalue = [0, 0, 0, 0, 0, 0, 0, 0, 0, 1]"] ;
686 -> 688 ;
689 [label="gini = 0.0\nsamples = 2\nvalue = [0, 0, 0, 2, 0, 0, 0, 0, 0, 0]"] ;
683 -> 689 ;
690 [label="gini = 0.0\nsamples = 2\nvalue = [0, 0, 2, 0, 0, 0, 0, 0, 0, 0]"] ;
678 -> 690 ;
691 [label="X[4] <= 3077.565\ngini = 0.278\nsamples = 6\nvalue = [0, 1, 0, 0, 0, 0, 0, 0, 0, 5]"] ;
671 -> 691 ;
692 [label="gini = 0.0\nsamples = 1\nvalue = [0, 1, 0, 0, 0, 0, 0, 0, 0, 0]"] ;
691 -> 692 ;
693 [label="gini = 0.0\nsamples = 5\nvalue = [0, 0, 0, 0, 0, 0, 0, 0, 0, 5]"] ;
691 -> 693 ;
694 [label="X[8] <= 0.0\ngini = 0.649\nsamples = 31\nvalue = [2, 0, 0, 1, 0, 3, 0, 17, 5, 3]"] ;
670 -> 694 ;
695 [label="X[6] <= 2.713\ngini = 0.32\nsamples = 16\nvalue = [0, 0, 0, 0, 0, 0, 0, 13, 1, 2]"] ;
694 -> 695 ;
696 [label="X[4] <= 5098.882\ngini = 0.142\nsamples = 13\nvalue = [0, 0, 0, 0, 0, 0, 0, 12, 1, 0]"] ;
695 -> 696 ;
697 [label="gini = 0.0\nsamples = 12\nvalue = [0, 0, 0, 0, 0, 0, 0, 12, 0, 0]"] ;
696 -> 697 ;
698 [label="gini = 0.0\nsamples = 1\nvalue = [0, 0, 0, 0, 0, 0, 0, 0, 1, 0]"] ;
696 -> 698 ;
699 [label="X[2] <= -0.0\ngini = 0.444\nsamples = 3\nvalue = [0, 0, 0, 0, 0, 0, 0, 1, 0, 2]"] ;
695 -> 699 ;
700 [label="gini = 0.0\nsamples = 2\nvalue = [0, 0, 0, 0, 0, 0, 0, 0, 0, 2]"] ;
699 -> 700 ;
701 [label="gini = 0.0\nsamples = 1\nvalue = [0, 0, 0, 0, 0, 0, 0, 1, 0, 0]"] ;
699 -> 701 ;
702 [label="X[8] <= 0.0\ngini = 0.791\nsamples = 15\nvalue = [2, 0, 0, 1, 0, 3, 0, 4, 4, 1]"] ;
694 -> 702 ;
703 [label="X[6] <= 1.758\ngini = 0.375\nsamples = 4\nvalue = [0, 0, 0, 1, 0, 3, 0, 0, 0, 0]"] ;
702 -> 703 ;
704 [label="gini = 0.0\nsamples = 1\nvalue = [0, 0, 0, 1, 0, 0, 0, 0, 0, 0]"] ;
703 -> 704 ;
705 [label="gini = 0.0\nsamples = 3\nvalue = [0, 0, 0, 0, 0, 3, 0, 0, 0, 0]"] ;
703 -> 705 ;
706 [label="X[10] <= 0.166\ngini = 0.694\nsamples = 11\nvalue = [2, 0, 0, 0, 0, 0, 0, 4, 4, 1]"] ;
702 -> 706 ;
707 [label="gini = 0.0\nsamples = 3\nvalue = [0, 0, 0, 0, 0, 0, 0, 3, 0, 0]"] ;
706 -> 707 ;
708 [label="X[11] <= 0.079\ngini = 0.656\nsamples = 8\nvalue = [2, 0, 0, 0, 0, 0, 0, 1, 4, 1]"] ;
706 -> 708 ;
709 [label="X[2] <= -0.002\ngini = 0.625\nsamples = 4\nvalue = [2, 0, 0, 0, 0, 0, 0, 1, 0, 1]"] ;
708 -> 709 ;
710 [label="X[11] <= 0.068\ngini = 0.5\nsamples = 2\nvalue = [0, 0, 0, 0, 0, 0, 0, 1, 0, 1]"] ;
709 -> 710 ;
711 [label="gini = 0.0\nsamples = 1\nvalue = [0, 0, 0, 0, 0, 0, 0, 0, 0, 1]"] ;
710 -> 711 ;
712 [label="gini = 0.0\nsamples = 1\nvalue = [0, 0, 0, 0, 0, 0, 0, 1, 0, 0]"] ;
710 -> 712 ;
713 [label="gini = 0.0\nsamples = 2\nvalue = [2, 0, 0, 0, 0, 0, 0, 0, 0, 0]"] ;
709 -> 713 ;
714 [label="gini = 0.0\nsamples = 4\nvalue = [0, 0, 0, 0, 0, 0, 0, 0, 4, 0]"] ;
708 -> 714 ;
715 [label="X[4] <= 4218.983\ngini = 0.698\nsamples = 26\nvalue = [0, 0, 0, 0, 0, 2, 10, 6, 8, 0]"] ;
655 -> 715 ;
716 [label="X[11] <= 0.166\ngini = 0.656\nsamples = 16\nvalue = [0, 0, 0, 0, 0, 2, 2, 4, 8, 0]"] ;
715 -> 716 ;
717 [label="X[11] <= 0.066\ngini = 0.43\nsamples = 11\nvalue = [0, 0, 0, 0, 0, 1, 2, 0, 8, 0]"] ;
716 -> 717 ;
718 [label="gini = 0.0\nsamples = 2\nvalue = [0, 0, 0, 0, 0, 0, 2, 0, 0, 0]"] ;
717 -> 718 ;
719 [label="X[10] <= 0.316\ngini = 0.198\nsamples = 9\nvalue = [0, 0, 0, 0, 0, 1, 0, 0, 8, 0]"] ;
717 -> 719 ;
720 [label="gini = 0.0\nsamples = 8\nvalue = [0, 0, 0, 0, 0, 0, 0, 0, 8, 0]"] ;
719 -> 720 ;
721 [label="gini = 0.0\nsamples = 1\nvalue = [0, 0, 0, 0, 0, 1, 0, 0, 0, 0]"] ;
719 -> 721 ;
722 [label="X[3] <= 5.566\ngini = 0.32\nsamples = 5\nvalue = [0, 0, 0, 0, 0, 1, 0, 4, 0, 0]"] ;
716 -> 722 ;
723 [label="gini = 0.0\nsamples = 1\nvalue = [0, 0, 0, 0, 0, 1, 0, 0, 0, 0]"] ;
722 -> 723 ;
724 [label="gini = 0.0\nsamples = 4\nvalue = [0, 0, 0, 0, 0, 0, 0, 4, 0, 0]"] ;
722 -> 724 ;
725 [label="X[1] <= 229.801\ngini = 0.32\nsamples = 10\nvalue = [0, 0, 0, 0, 0, 0, 8, 2, 0, 0]"] ;
715 -> 725 ;
726 [label="X[5] <= 0.521\ngini = 0.444\nsamples = 3\nvalue = [0, 0, 0, 0, 0, 0, 1, 2, 0, 0]"] ;
725 -> 726 ;
727 [label="gini = 0.0\nsamples = 1\nvalue = [0, 0, 0, 0, 0, 0, 1, 0, 0, 0]"] ;
726 -> 727 ;
728 [label="gini = 0.0\nsamples = 2\nvalue = [0, 0, 0, 0, 0, 0, 0, 2, 0, 0]"] ;
726 -> 728 ;
729 [label="gini = 0.0\nsamples = 7\nvalue = [0, 0, 0, 0, 0, 0, 7, 0, 0, 0]"] ;
725 -> 729 ;
730 [label="X[3] <= 6.779\ngini = 0.781\nsamples = 48\nvalue = [3, 0, 1, 11, 8, 0, 0, 2, 7, 16]"] ;
654 -> 730 ;
731 [label="X[10] <= 0.196\ngini = 0.649\nsamples = 22\nvalue = [1, 0, 1, 10, 8, 0, 0, 0, 2, 0]"] ;
730 -> 731 ;
732 [label="X[2] <= 0.001\ngini = 0.43\nsamples = 11\nvalue = [0, 0, 1, 2, 8, 0, 0, 0, 0, 0]"] ;
731 -> 732 ;
733 [label="X[9] <= 0.0\ngini = 0.198\nsamples = 9\nvalue = [0, 0, 1, 0, 8, 0, 0, 0, 0, 0]"] ;
732 -> 733 ;
734 [label="gini = 0.0\nsamples = 1\nvalue = [0, 0, 1, 0, 0, 0, 0, 0, 0, 0]"] ;
733 -> 734 ;
735 [label="gini = 0.0\nsamples = 8\nvalue = [0, 0, 0, 0, 8, 0, 0, 0, 0, 0]"] ;
733 -> 735 ;
736 [label="gini = 0.0\nsamples = 2\nvalue = [0, 0, 0, 2, 0, 0, 0, 0, 0, 0]"] ;
732 -> 736 ;
737 [label="X[10] <= 0.274\ngini = 0.43\nsamples = 11\nvalue = [1, 0, 0, 8, 0, 0, 0, 0, 2, 0]"] ;
731 -> 737 ;
738 [label="X[11] <= 0.244\ngini = 0.625\nsamples = 4\nvalue = [1, 0, 0, 1, 0, 0, 0, 0, 2, 0]"] ;
737 -> 738 ;
739 [label="gini = 0.0\nsamples = 2\nvalue = [0, 0, 0, 0, 0, 0, 0, 0, 2, 0]"] ;
738 -> 739 ;
740 [label="X[2] <= -0.0\ngini = 0.5\nsamples = 2\nvalue = [1, 0, 0, 1, 0, 0, 0, 0, 0, 0]"] ;
738 -> 740 ;
741 [label="gini = 0.0\nsamples = 1\nvalue = [0, 0, 0, 1, 0, 0, 0, 0, 0, 0]"] ;
740 -> 741 ;
742 [label="gini = 0.0\nsamples = 1\nvalue = [1, 0, 0, 0, 0, 0, 0, 0, 0, 0]"] ;
740 -> 742 ;
743 [label="gini = 0.0\nsamples = 7\nvalue = [0, 0, 0, 7, 0, 0, 0, 0, 0, 0]"] ;
737 -> 743 ;
744 [label="X[10] <= 0.254\ngini = 0.571\nsamples = 26\nvalue = [2, 0, 0, 1, 0, 0, 0, 2, 5, 16]"] ;
730 -> 744 ;
745 [label="X[5] <= 1.066\ngini = 0.111\nsamples = 17\nvalue = [0, 0, 0, 1, 0, 0, 0, 0, 0, 16]"] ;
744 -> 745 ;
746 [label="gini = 0.0\nsamples = 16\nvalue = [0, 0, 0, 0, 0, 0, 0, 0, 0, 16]"] ;
745 -> 746 ;
747 [label="gini = 0.0\nsamples = 1\nvalue = [0, 0, 0, 1, 0, 0, 0, 0, 0, 0]"] ;
745 -> 747 ;
748 [label="X[4] <= 3938.335\ngini = 0.593\nsamples = 9\nvalue = [2, 0, 0, 0, 0, 0, 0, 2, 5, 0]"] ;
744 -> 748 ;
749 [label="X[1] <= 191.669\ngini = 0.408\nsamples = 7\nvalue = [0, 0, 0, 0, 0, 0, 0, 2, 5, 0]"] ;
748 -> 749 ;
750 [label="gini = 0.0\nsamples = 2\nvalue = [0, 0, 0, 0, 0, 0, 0, 2, 0, 0]"] ;
749 -> 750 ;
751 [label="gini = 0.0\nsamples = 5\nvalue = [0, 0, 0, 0, 0, 0, 0, 0, 5, 0]"] ;
749 -> 751 ;
752 [label="gini = 0.0\nsamples = 2\nvalue = [2, 0, 0, 0, 0, 0, 0, 0, 0, 0]"] ;
748 -> 752 ;
753 [label="X[3] <= 9.03\ngini = 0.626\nsamples = 19\nvalue = [11, 2, 2, 0, 0, 1, 0, 2, 1, 0]"] ;
653 -> 753 ;
754 [label="X[7] <= 0.564\ngini = 0.26\nsamples = 13\nvalue = [11, 0, 2, 0, 0, 0, 0, 0, 0, 0]"] ;
753 -> 754 ;
755 [label="gini = 0.0\nsamples = 11\nvalue = [11, 0, 0, 0, 0, 0, 0, 0, 0, 0]"] ;
754 -> 755 ;
756 [label="gini = 0.0\nsamples = 2\nvalue = [0, 0, 2, 0, 0, 0, 0, 0, 0, 0]"] ;
754 -> 756 ;
757 [label="X[8] <= 0.001\ngini = 0.722\nsamples = 6\nvalue = [0, 2, 0, 0, 0, 1, 0, 2, 1, 0]"] ;
753 -> 757 ;
758 [label="X[10] <= 0.34\ngini = 0.625\nsamples = 4\nvalue = [0, 0, 0, 0, 0, 1, 0, 2, 1, 0]"] ;
757 -> 758 ;
759 [label="gini = 0.0\nsamples = 2\nvalue = [0, 0, 0, 0, 0, 0, 0, 2, 0, 0]"] ;
758 -> 759 ;
760 [label="X[0] <= 0.536\ngini = 0.5\nsamples = 2\nvalue = [0, 0, 0, 0, 0, 1, 0, 0, 1, 0]"] ;
758 -> 760 ;
761 [label="gini = 0.0\nsamples = 1\nvalue = [0, 0, 0, 0, 0, 1, 0, 0, 0, 0]"] ;
760 -> 761 ;
762 [label="gini = 0.0\nsamples = 1\nvalue = [0, 0, 0, 0, 0, 0, 0, 0, 1, 0]"] ;
760 -> 762 ;
763 [label="gini = 0.0\nsamples = 2\nvalue = [0, 2, 0, 0, 0, 0, 0, 0, 0, 0]"] ;
757 -> 763 ;
764 [label="X[11] <= 0.18\ngini = 0.771\nsamples = 412\nvalue = [85, 103, 10, 0, 90, 0, 2, 4, 5, 113]"] ;
0 -> 764 [labeldistance=2.5, labelangle=-45, headlabel="False"] ;
765 [label="X[3] <= 11.154\ngini = 0.731\nsamples = 322\nvalue = [84, 99, 5, 0, 25, 0, 0, 4, 3, 102]"] ;
764 -> 765 ;
766 [label="X[1] <= 175.236\ngini = 0.711\nsamples = 226\nvalue = [41, 96, 5, 0, 18, 0, 0, 4, 3, 59]"] ;
765 -> 766 ;
767 [label="X[11] <= 0.02\ngini = 0.621\nsamples = 160\nvalue = [23, 86, 4, 0, 1, 0, 0, 2, 2, 42]"] ;
766 -> 767 ;
768 [label="X[10] <= 0.1\ngini = 0.314\nsamples = 39\nvalue = [3, 32, 0, 0, 0, 0, 0, 0, 1, 3]"] ;
767 -> 768 ;
769 [label="X[3] <= 7.329\ngini = 0.625\nsamples = 4\nvalue = [2, 0, 0, 0, 0, 0, 0, 0, 1, 1]"] ;
768 -> 769 ;
770 [label="X[4] <= 6588.42\ngini = 0.5\nsamples = 2\nvalue = [0, 0, 0, 0, 0, 0, 0, 0, 1, 1]"] ;
769 -> 770 ;
771 [label="gini = 0.0\nsamples = 1\nvalue = [0, 0, 0, 0, 0, 0, 0, 0, 0, 1]"] ;
770 -> 771 ;
772 [label="gini = 0.0\nsamples = 1\nvalue = [0, 0, 0, 0, 0, 0, 0, 0, 1, 0]"] ;
770 -> 772 ;
773 [label="gini = 0.0\nsamples = 2\nvalue = [2, 0, 0, 0, 0, 0, 0, 0, 0, 0]"] ;
769 -> 773 ;
774 [label="X[2] <= -0.001\ngini = 0.16\nsamples = 35\nvalue = [1, 32, 0, 0, 0, 0, 0, 0, 0, 2]"] ;
768 -> 774 ;
775 [label="gini = 0.0\nsamples = 2\nvalue = [0, 0, 0, 0, 0, 0, 0, 0, 0, 2]"] ;
774 -> 775 ;
776 [label="X[7] <= 2.282\ngini = 0.059\nsamples = 33\nvalue = [1, 32, 0, 0, 0, 0, 0, 0, 0, 0]"] ;
774 -> 776 ;
777 [label="gini = 0.0\nsamples = 32\nvalue = [0, 32, 0, 0, 0, 0, 0, 0, 0, 0]"] ;
776 -> 777 ;
778 [label="gini = 0.0\nsamples = 1\nvalue = [1, 0, 0, 0, 0, 0, 0, 0, 0, 0]"] ;
776 -> 778 ;
779 [label="X[5] <= 1.628\ngini = 0.668\nsamples = 121\nvalue = [20, 54, 4, 0, 1, 0, 0, 2, 1, 39]"] ;
767 -> 779 ;
780 [label="X[10] <= 0.255\ngini = 0.498\nsamples = 35\nvalue = [5, 24, 3, 0, 0, 0, 0, 2, 0, 1]"] ;
779 -> 780 ;
781 [label="X[4] <= 2118.167\ngini = 0.408\nsamples = 32\nvalue = [5, 24, 0, 0, 0, 0, 0, 2, 0, 1]"] ;
780 -> 781 ;
782 [label="gini = 0.0\nsamples = 2\nvalue = [0, 0, 0, 0, 0, 0, 0, 2, 0, 0]"] ;
781 -> 782 ;
783 [label="X[7] <= 0.466\ngini = 0.331\nsamples = 30\nvalue = [5, 24, 0, 0, 0, 0, 0, 0, 0, 1]"] ;
781 -> 783 ;
784 [label="gini = 0.0\nsamples = 16\nvalue = [0, 16, 0, 0, 0, 0, 0, 0, 0, 0]"] ;
783 -> 784 ;
785 [label="X[5] <= 1.298\ngini = 0.541\nsamples = 14\nvalue = [5, 8, 0, 0, 0, 0, 0, 0, 0, 1]"] ;
783 -> 785 ;
786 [label="X[10] <= 0.102\ngini = 0.449\nsamples = 7\nvalue = [5, 1, 0, 0, 0, 0, 0, 0, 0, 1]"] ;
785 -> 786 ;
787 [label="X[1] <= 144.559\ngini = 0.5\nsamples = 2\nvalue = [0, 1, 0, 0, 0, 0, 0, 0, 0, 1]"] ;
786 -> 787 ;
788 [label="gini = 0.0\nsamples = 1\nvalue = [0, 1, 0, 0, 0, 0, 0, 0, 0, 0]"] ;
787 -> 788 ;
789 [label="gini = 0.0\nsamples = 1\nvalue = [0, 0, 0, 0, 0, 0, 0, 0, 0, 1]"] ;
787 -> 789 ;
790 [label="gini = 0.0\nsamples = 5\nvalue = [5, 0, 0, 0, 0, 0, 0, 0, 0, 0]"] ;
786 -> 790 ;
791 [label="gini = 0.0\nsamples = 7\nvalue = [0, 7, 0, 0, 0, 0, 0, 0, 0, 0]"] ;
785 -> 791 ;
792 [label="gini = 0.0\nsamples = 3\nvalue = [0, 0, 3, 0, 0, 0, 0, 0, 0, 0]"] ;
780 -> 792 ;
793 [label="X[7] <= 0.562\ngini = 0.652\nsamples = 86\nvalue = [15, 30, 1, 0, 1, 0, 0, 0, 1, 38]"] ;
779 -> 793 ;
794 [label="gini = 0.0\nsamples = 7\nvalue = [7, 0, 0, 0, 0, 0, 0, 0, 0, 0]"] ;
793 -> 794 ;
795 [label="X[5] <= 2.424\ngini = 0.614\nsamples = 79\nvalue = [8, 30, 1, 0, 1, 0, 0, 0, 1, 38]"] ;
793 -> 795 ;
796 [label="X[3] <= 6.798\ngini = 0.39\nsamples = 25\nvalue = [4, 2, 0, 0, 0, 0, 0, 0, 0, 19]"] ;
795 -> 796 ;
797 [label="X[6] <= 4.86\ngini = 0.5\nsamples = 4\nvalue = [2, 2, 0, 0, 0, 0, 0, 0, 0, 0]"] ;
796 -> 797 ;
798 [label="gini = 0.0\nsamples = 2\nvalue = [2, 0, 0, 0, 0, 0, 0, 0, 0, 0]"] ;
797 -> 798 ;
799 [label="gini = 0.0\nsamples = 2\nvalue = [0, 2, 0, 0, 0, 0, 0, 0, 0, 0]"] ;
797 -> 799 ;
800 [label="X[6] <= 11.019\ngini = 0.172\nsamples = 21\nvalue = [2, 0, 0, 0, 0, 0, 0, 0, 0, 19]"] ;
796 -> 800 ;
801 [label="gini = 0.0\nsamples = 18\nvalue = [0, 0, 0, 0, 0, 0, 0, 0, 0, 18]"] ;
800 -> 801 ;
802 [label="X[0] <= 0.929\ngini = 0.444\nsamples = 3\nvalue = [2, 0, 0, 0, 0, 0, 0, 0, 0, 1]"] ;
800 -> 802 ;
803 [label="gini = 0.0\nsamples = 1\nvalue = [0, 0, 0, 0, 0, 0, 0, 0, 0, 1]"] ;
802 -> 803 ;
804 [label="gini = 0.0\nsamples = 2\nvalue = [2, 0, 0, 0, 0, 0, 0, 0, 0, 0]"] ;
802 -> 804 ;
805 [label="X[7] <= 1.624\ngini = 0.601\nsamples = 54\nvalue = [4, 28, 1, 0, 1, 0, 0, 0, 1, 19]"] ;
795 -> 805 ;
806 [label="X[10] <= 0.327\ngini = 0.456\nsamples = 37\nvalue = [2, 26, 0, 0, 1, 0, 0, 0, 0, 8]"] ;
805 -> 806 ;
807 [label="X[1] <= 108.908\ngini = 0.36\nsamples = 33\nvalue = [2, 26, 0, 0, 1, 0, 0, 0, 0, 4]"] ;
806 -> 807 ;
808 [label="gini = 0.0\nsamples = 2\nvalue = [0, 0, 0, 0, 0, 0, 0, 0, 0, 2]"] ;
807 -> 808 ;
809 [label="X[10] <= 0.265\ngini = 0.287\nsamples = 31\nvalue = [2, 26, 0, 0, 1, 0, 0, 0, 0, 2]"] ;
807 -> 809 ;
810 [label="X[10] <= 0.063\ngini = 0.145\nsamples = 26\nvalue = [0, 24, 0, 0, 1, 0, 0, 0, 0, 1]"] ;
809 -> 810 ;
811 [label="gini = 0.0\nsamples = 1\nvalue = [0, 0, 0, 0, 1, 0, 0, 0, 0, 0]"] ;
810 -> 811 ;
812 [label="X[5] <= 4.967\ngini = 0.077\nsamples = 25\nvalue = [0, 24, 0, 0, 0, 0, 0, 0, 0, 1]"] ;
810 -> 812 ;
813 [label="gini = 0.0\nsamples = 24\nvalue = [0, 24, 0, 0, 0, 0, 0, 0, 0, 0]"] ;
812 -> 813 ;
814 [label="gini = 0.0\nsamples = 1\nvalue = [0, 0, 0, 0, 0, 0, 0, 0, 0, 1]"] ;
812 -> 814 ;
815 [label="X[7] <= 1.186\ngini = 0.64\nsamples = 5\nvalue = [2, 2, 0, 0, 0, 0, 0, 0, 0, 1]"] ;
809 -> 815 ;
816 [label="gini = 0.0\nsamples = 2\nvalue = [2, 0, 0, 0, 0, 0, 0, 0, 0, 0]"] ;
815 -> 816 ;
817 [label="X[12] <= 0.044\ngini = 0.444\nsamples = 3\nvalue = [0, 2, 0, 0, 0, 0, 0, 0, 0, 1]"] ;
815 -> 817 ;
818 [label="gini = 0.0\nsamples = 2\nvalue = [0, 2, 0, 0, 0, 0, 0, 0, 0, 0]"] ;
817 -> 818 ;
819 [label="gini = 0.0\nsamples = 1\nvalue = [0, 0, 0, 0, 0, 0, 0, 0, 0, 1]"] ;
817 -> 819 ;
820 [label="gini = 0.0\nsamples = 4\nvalue = [0, 0, 0, 0, 0, 0, 0, 0, 0, 4]"] ;
806 -> 820 ;
821 [label="X[10] <= 0.087\ngini = 0.547\nsamples = 17\nvalue = [2, 2, 1, 0, 0, 0, 0, 0, 1, 11]"] ;
805 -> 821 ;
822 [label="X[6] <= 6.439\ngini = 0.444\nsamples = 3\nvalue = [0, 2, 0, 0, 0, 0, 0, 0, 1, 0]"] ;
821 -> 822 ;
823 [label="gini = 0.0\nsamples = 1\nvalue = [0, 0, 0, 0, 0, 0, 0, 0, 1, 0]"] ;
822 -> 823 ;
824 [label="gini = 0.0\nsamples = 2\nvalue = [0, 2, 0, 0, 0, 0, 0, 0, 0, 0]"] ;
822 -> 824 ;
825 [label="X[7] <= 2.123\ngini = 0.357\nsamples = 14\nvalue = [2, 0, 1, 0, 0, 0, 0, 0, 0, 11]"] ;
821 -> 825 ;
826 [label="X[9] <= 0.124\ngini = 0.153\nsamples = 12\nvalue = [1, 0, 0, 0, 0, 0, 0, 0, 0, 11]"] ;
825 -> 826 ;
827 [label="gini = 0.0\nsamples = 11\nvalue = [0, 0, 0, 0, 0, 0, 0, 0, 0, 11]"] ;
826 -> 827 ;
828 [label="gini = 0.0\nsamples = 1\nvalue = [1, 0, 0, 0, 0, 0, 0, 0, 0, 0]"] ;
826 -> 828 ;
829 [label="X[11] <= 0.058\ngini = 0.5\nsamples = 2\nvalue = [1, 0, 1, 0, 0, 0, 0, 0, 0, 0]"] ;
825 -> 829 ;
830 [label="gini = 0.0\nsamples = 1\nvalue = [1, 0, 0, 0, 0, 0, 0, 0, 0, 0]"] ;
829 -> 830 ;
831 [label="gini = 0.0\nsamples = 1\nvalue = [0, 0, 1, 0, 0, 0, 0, 0, 0, 0]"] ;
829 -> 831 ;
832 [label="X[11] <= 0.111\ngini = 0.769\nsamples = 66\nvalue = [18, 10, 1, 0, 17, 0, 0, 2, 1, 17]"] ;
766 -> 832 ;
833 [label="X[5] <= 3.377\ngini = 0.651\nsamples = 34\nvalue = [11, 5, 0, 0, 1, 0, 0, 0, 1, 16]"] ;
832 -> 833 ;
834 [label="X[5] <= 1.359\ngini = 0.579\nsamples = 28\nvalue = [7, 5, 0, 0, 0, 0, 0, 0, 0, 16]"] ;
833 -> 834 ;
835 [label="X[0] <= 0.75\ngini = 0.594\nsamples = 8\nvalue = [3, 4, 0, 0, 0, 0, 0, 0, 0, 1]"] ;
834 -> 835 ;
836 [label="gini = 0.0\nsamples = 4\nvalue = [0, 4, 0, 0, 0, 0, 0, 0, 0, 0]"] ;
835 -> 836 ;
837 [label="X[4] <= 4899.532\ngini = 0.375\nsamples = 4\nvalue = [3, 0, 0, 0, 0, 0, 0, 0, 0, 1]"] ;
835 -> 837 ;
838 [label="gini = 0.0\nsamples = 3\nvalue = [3, 0, 0, 0, 0, 0, 0, 0, 0, 0]"] ;
837 -> 838 ;
839 [label="gini = 0.0\nsamples = 1\nvalue = [0, 0, 0, 0, 0, 0, 0, 0, 0, 1]"] ;
837 -> 839 ;
840 [label="X[0] <= 0.893\ngini = 0.395\nsamples = 20\nvalue = [4, 1, 0, 0, 0, 0, 0, 0, 0, 15]"] ;
834 -> 840 ;
841 [label="X[11] <= 0.013\ngini = 0.29\nsamples = 18\nvalue = [2, 1, 0, 0, 0, 0, 0, 0, 0, 15]"] ;
840 -> 841 ;
842 [label="gini = 0.0\nsamples = 1\nvalue = [0, 1, 0, 0, 0, 0, 0, 0, 0, 0]"] ;
841 -> 842 ;
843 [label="X[1] <= 279.554\ngini = 0.208\nsamples = 17\nvalue = [2, 0, 0, 0, 0, 0, 0, 0, 0, 15]"] ;
841 -> 843 ;
844 [label="X[12] <= 0.049\ngini = 0.117\nsamples = 16\nvalue = [1, 0, 0, 0, 0, 0, 0, 0, 0, 15]"] ;
843 -> 844 ;
845 [label="gini = 0.0\nsamples = 15\nvalue = [0, 0, 0, 0, 0, 0, 0, 0, 0, 15]"] ;
844 -> 845 ;
846 [label="gini = 0.0\nsamples = 1\nvalue = [1, 0, 0, 0, 0, 0, 0, 0, 0, 0]"] ;
844 -> 846 ;
847 [label="gini = 0.0\nsamples = 1\nvalue = [1, 0, 0, 0, 0, 0, 0, 0, 0, 0]"] ;
843 -> 847 ;
848 [label="gini = 0.0\nsamples = 2\nvalue = [2, 0, 0, 0, 0, 0, 0, 0, 0, 0]"] ;
840 -> 848 ;
849 [label="X[2] <= -0.0\ngini = 0.5\nsamples = 6\nvalue = [4, 0, 0, 0, 1, 0, 0, 0, 1, 0]"] ;
833 -> 849 ;
850 [label="X[10] <= 0.085\ngini = 0.5\nsamples = 2\nvalue = [0, 0, 0, 0, 1, 0, 0, 0, 1, 0]"] ;
849 -> 850 ;
851 [label="gini = 0.0\nsamples = 1\nvalue = [0, 0, 0, 0, 0, 0, 0, 0, 1, 0]"] ;
850 -> 851 ;
852 [label="gini = 0.0\nsamples = 1\nvalue = [0, 0, 0, 0, 1, 0, 0, 0, 0, 0]"] ;
850 -> 852 ;
853 [label="gini = 0.0\nsamples = 4\nvalue = [4, 0, 0, 0, 0, 0, 0, 0, 0, 0]"] ;
849 -> 853 ;
854 [label="X[5] <= 2.133\ngini = 0.672\nsamples = 32\nvalue = [7, 5, 1, 0, 16, 0, 0, 2, 0, 1]"] ;
832 -> 854 ;
855 [label="X[1] <= 252.246\ngini = 0.642\nsamples = 9\nvalue = [4, 3, 0, 0, 0, 0, 0, 2, 0, 0]"] ;
854 -> 855 ;
856 [label="X[5] <= 1.046\ngini = 0.48\nsamples = 5\nvalue = [0, 3, 0, 0, 0, 0, 0, 2, 0, 0]"] ;
855 -> 856 ;
857 [label="gini = 0.0\nsamples = 2\nvalue = [0, 0, 0, 0, 0, 0, 0, 2, 0, 0]"] ;
856 -> 857 ;
858 [label="gini = 0.0\nsamples = 3\nvalue = [0, 3, 0, 0, 0, 0, 0, 0, 0, 0]"] ;
856 -> 858 ;
859 [label="gini = 0.0\nsamples = 4\nvalue = [4, 0, 0, 0, 0, 0, 0, 0, 0, 0]"] ;
855 -> 859 ;
860 [label="X[7] <= 1.279\ngini = 0.488\nsamples = 23\nvalue = [3, 2, 1, 0, 16, 0, 0, 0, 0, 1]"] ;
854 -> 860 ;
861 [label="X[3] <= 6.564\ngini = 0.133\nsamples = 14\nvalue = [1, 0, 0, 0, 13, 0, 0, 0, 0, 0]"] ;
860 -> 861 ;
862 [label="gini = 0.0\nsamples = 1\nvalue = [1, 0, 0, 0, 0, 0, 0, 0, 0, 0]"] ;
861 -> 862 ;
863 [label="gini = 0.0\nsamples = 13\nvalue = [0, 0, 0, 0, 13, 0, 0, 0, 0, 0]"] ;
861 -> 863 ;
864 [label="X[12] <= 0.093\ngini = 0.765\nsamples = 9\nvalue = [2, 2, 1, 0, 3, 0, 0, 0, 0, 1]"] ;
860 -> 864 ;
865 [label="X[4] <= 4478.864\ngini = 0.722\nsamples = 6\nvalue = [2, 2, 1, 0, 0, 0, 0, 0, 0, 1]"] ;
864 -> 865 ;
866 [label="gini = 0.0\nsamples = 2\nvalue = [2, 0, 0, 0, 0, 0, 0, 0, 0, 0]"] ;
865 -> 866 ;
867 [label="X[4] <= 5467.874\ngini = 0.625\nsamples = 4\nvalue = [0, 2, 1, 0, 0, 0, 0, 0, 0, 1]"] ;
865 -> 867 ;
868 [label="gini = 0.0\nsamples = 2\nvalue = [0, 2, 0, 0, 0, 0, 0, 0, 0, 0]"] ;
867 -> 868 ;
869 [label="X[2] <= -0.0\ngini = 0.5\nsamples = 2\nvalue = [0, 0, 1, 0, 0, 0, 0, 0, 0, 1]"] ;
867 -> 869 ;
870 [label="gini = 0.0\nsamples = 1\nvalue = [0, 0, 0, 0, 0, 0, 0, 0, 0, 1]"] ;
869 -> 870 ;
871 [label="gini = 0.0\nsamples = 1\nvalue = [0, 0, 1, 0, 0, 0, 0, 0, 0, 0]"] ;
869 -> 871 ;
872 [label="gini = 0.0\nsamples = 3\nvalue = [0, 0, 0, 0, 3, 0, 0, 0, 0, 0]"] ;
864 -> 872 ;
873 [label="X[6] <= 25.465\ngini = 0.592\nsamples = 96\nvalue = [43, 3, 0, 0, 7, 0, 0, 0, 0, 43]"] ;
765 -> 873 ;
874 [label="X[7] <= 0.975\ngini = 0.591\nsamples = 82\nvalue = [43, 3, 0, 0, 7, 0, 0, 0, 0, 29]"] ;
873 -> 874 ;
875 [label="X[11] <= 0.07\ngini = 0.133\nsamples = 14\nvalue = [0, 1, 0, 0, 0, 0, 0, 0, 0, 13]"] ;
874 -> 875 ;
876 [label="gini = 0.0\nsamples = 1\nvalue = [0, 1, 0, 0, 0, 0, 0, 0, 0, 0]"] ;
875 -> 876 ;
877 [label="gini = 0.0\nsamples = 13\nvalue = [0, 0, 0, 0, 0, 0, 0, 0, 0, 13]"] ;
875 -> 877 ;
878 [label="X[2] <= -0.001\ngini = 0.533\nsamples = 68\nvalue = [43, 2, 0, 0, 7, 0, 0, 0, 0, 16]"] ;
874 -> 878 ;
879 [label="gini = 0.0\nsamples = 6\nvalue = [0, 0, 0, 0, 0, 0, 0, 0, 0, 6]"] ;
878 -> 879 ;
880 [label="X[0] <= 0.607\ngini = 0.479\nsamples = 62\nvalue = [43, 2, 0, 0, 7, 0, 0, 0, 0, 10]"] ;
878 -> 880 ;
881 [label="gini = 0.0\nsamples = 5\nvalue = [0, 0, 0, 0, 5, 0, 0, 0, 0, 0]"] ;
880 -> 881 ;
882 [label="X[4] <= 4939.085\ngini = 0.398\nsamples = 57\nvalue = [43, 2, 0, 0, 2, 0, 0, 0, 0, 10]"] ;
880 -> 882 ;
883 [label="X[10] <= 0.107\ngini = 0.64\nsamples = 5\nvalue = [0, 2, 0, 0, 2, 0, 0, 0, 0, 1]"] ;
882 -> 883 ;
884 [label="gini = 0.0\nsamples = 2\nvalue = [0, 0, 0, 0, 2, 0, 0, 0, 0, 0]"] ;
883 -> 884 ;
885 [label="X[0] <= 0.75\ngini = 0.444\nsamples = 3\nvalue = [0, 2, 0, 0, 0, 0, 0, 0, 0, 1]"] ;
883 -> 885 ;
886 [label="gini = 0.0\nsamples = 1\nvalue = [0, 0, 0, 0, 0, 0, 0, 0, 0, 1]"] ;
885 -> 886 ;
887 [label="gini = 0.0\nsamples = 2\nvalue = [0, 2, 0, 0, 0, 0, 0, 0, 0, 0]"] ;
885 -> 887 ;
888 [label="X[4] <= 6020.061\ngini = 0.286\nsamples = 52\nvalue = [43, 0, 0, 0, 0, 0, 0, 0, 0, 9]"] ;
882 -> 888 ;
889 [label="X[0] <= 0.75\ngini = 0.475\nsamples = 18\nvalue = [11, 0, 0, 0, 0, 0, 0, 0, 0, 7]"] ;
888 -> 889 ;
890 [label="X[10] <= 0.132\ngini = 0.278\nsamples = 6\nvalue = [1, 0, 0, 0, 0, 0, 0, 0, 0, 5]"] ;
889 -> 890 ;
891 [label="gini = 0.0\nsamples = 1\nvalue = [1, 0, 0, 0, 0, 0, 0, 0, 0, 0]"] ;
890 -> 891 ;
892 [label="gini = 0.0\nsamples = 5\nvalue = [0, 0, 0, 0, 0, 0, 0, 0, 0, 5]"] ;
890 -> 892 ;
893 [label="X[0] <= 1.071\ngini = 0.278\nsamples = 12\nvalue = [10, 0, 0, 0, 0, 0, 0, 0, 0, 2]"] ;
889 -> 893 ;
894 [label="X[1] <= 116.149\ngini = 0.165\nsamples = 11\nvalue = [10, 0, 0, 0, 0, 0, 0, 0, 0, 1]"] ;
893 -> 894 ;
895 [label="X[10] <= 0.176\ngini = 0.5\nsamples = 2\nvalue = [1, 0, 0, 0, 0, 0, 0, 0, 0, 1]"] ;
894 -> 895 ;
896 [label="gini = 0.0\nsamples = 1\nvalue = [1, 0, 0, 0, 0, 0, 0, 0, 0, 0]"] ;
895 -> 896 ;
897 [label="gini = 0.0\nsamples = 1\nvalue = [0, 0, 0, 0, 0, 0, 0, 0, 0, 1]"] ;
895 -> 897 ;
898 [label="gini = 0.0\nsamples = 9\nvalue = [9, 0, 0, 0, 0, 0, 0, 0, 0, 0]"] ;
894 -> 898 ;
899 [label="gini = 0.0\nsamples = 1\nvalue = [0, 0, 0, 0, 0, 0, 0, 0, 0, 1]"] ;
893 -> 899 ;
900 [label="X[0] <= 1.036\ngini = 0.111\nsamples = 34\nvalue = [32, 0, 0, 0, 0, 0, 0, 0, 0, 2]"] ;
888 -> 900 ;
901 [label="X[9] <= 0.039\ngini = 0.061\nsamples = 32\nvalue = [31, 0, 0, 0, 0, 0, 0, 0, 0, 1]"] ;
900 -> 901 ;
902 [label="X[10] <= 0.145\ngini = 0.5\nsamples = 2\nvalue = [1, 0, 0, 0, 0, 0, 0, 0, 0, 1]"] ;
901 -> 902 ;
903 [label="gini = 0.0\nsamples = 1\nvalue = [1, 0, 0, 0, 0, 0, 0, 0, 0, 0]"] ;
902 -> 903 ;
904 [label="gini = 0.0\nsamples = 1\nvalue = [0, 0, 0, 0, 0, 0, 0, 0, 0, 1]"] ;
902 -> 904 ;
905 [label="gini = 0.0\nsamples = 30\nvalue = [30, 0, 0, 0, 0, 0, 0, 0, 0, 0]"] ;
901 -> 905 ;
906 [label="X[12] <= 0.089\ngini = 0.5\nsamples = 2\nvalue = [1, 0, 0, 0, 0, 0, 0, 0, 0, 1]"] ;
900 -> 906 ;
907 [label="gini = 0.0\nsamples = 1\nvalue = [0, 0, 0, 0, 0, 0, 0, 0, 0, 1]"] ;
906 -> 907 ;
908 [label="gini = 0.0\nsamples = 1\nvalue = [1, 0, 0, 0, 0, 0, 0, 0, 0, 0]"] ;
906 -> 908 ;
909 [label="gini = 0.0\nsamples = 14\nvalue = [0, 0, 0, 0, 0, 0, 0, 0, 0, 14]"] ;
873 -> 909 ;
910 [label="X[4] <= 3855.214\ngini = 0.457\nsamples = 90\nvalue = [1, 4, 5, 0, 65, 0, 2, 0, 2, 11]"] ;
764 -> 910 ;
911 [label="X[3] <= 12.044\ngini = 0.66\nsamples = 10\nvalue = [0, 0, 5, 0, 1, 0, 2, 0, 2, 0]"] ;
910 -> 911 ;
912 [label="X[2] <= -0.001\ngini = 0.408\nsamples = 7\nvalue = [0, 0, 5, 0, 0, 0, 0, 0, 2, 0]"] ;
911 -> 912 ;
913 [label="gini = 0.0\nsamples = 2\nvalue = [0, 0, 0, 0, 0, 0, 0, 0, 2, 0]"] ;
912 -> 913 ;
914 [label="gini = 0.0\nsamples = 5\nvalue = [0, 0, 5, 0, 0, 0, 0, 0, 0, 0]"] ;
912 -> 914 ;
915 [label="X[1] <= 179.866\ngini = 0.444\nsamples = 3\nvalue = [0, 0, 0, 0, 1, 0, 2, 0, 0, 0]"] ;
911 -> 915 ;
916 [label="gini = 0.0\nsamples = 1\nvalue = [0, 0, 0, 0, 1, 0, 0, 0, 0, 0]"] ;
915 -> 916 ;
917 [label="gini = 0.0\nsamples = 2\nvalue = [0, 0, 0, 0, 0, 0, 2, 0, 0, 0]"] ;
915 -> 917 ;
918 [label="X[3] <= 18.818\ngini = 0.338\nsamples = 80\nvalue = [1, 4, 0, 0, 64, 0, 0, 0, 0, 11]"] ;
910 -> 918 ;
919 [label="X[1] <= 134.256\ngini = 0.279\nsamples = 76\nvalue = [1, 4, 0, 0, 64, 0, 0, 0, 0, 7]"] ;
918 -> 919 ;
920 [label="X[11] <= 0.229\ngini = 0.48\nsamples = 5\nvalue = [0, 2, 0, 0, 0, 0, 0, 0, 0, 3]"] ;
919 -> 920 ;
921 [label="gini = 0.0\nsamples = 3\nvalue = [0, 0, 0, 0, 0, 0, 0, 0, 0, 3]"] ;
920 -> 921 ;
922 [label="gini = 0.0\nsamples = 2\nvalue = [0, 2, 0, 0, 0, 0, 0, 0, 0, 0]"] ;
920 -> 922 ;
923 [label="X[3] <= 6.647\ngini = 0.183\nsamples = 71\nvalue = [1, 2, 0, 0, 64, 0, 0, 0, 0, 4]"] ;
919 -> 923 ;
924 [label="gini = 0.0\nsamples = 2\nvalue = [0, 0, 0, 0, 0, 0, 0, 0, 0, 2]"] ;
923 -> 924 ;
925 [label="X[5] <= 1.744\ngini = 0.138\nsamples = 69\nvalue = [1, 2, 0, 0, 64, 0, 0, 0, 0, 2]"] ;
923 -> 925 ;
926 [label="X[11] <= 0.227\ngini = 0.5\nsamples = 2\nvalue = [1, 0, 0, 0, 1, 0, 0, 0, 0, 0]"] ;
925 -> 926 ;
927 [label="gini = 0.0\nsamples = 1\nvalue = [1, 0, 0, 0, 0, 0, 0, 0, 0, 0]"] ;
926 -> 927 ;
928 [label="gini = 0.0\nsamples = 1\nvalue = [0, 0, 0, 0, 1, 0, 0, 0, 0, 0]"] ;
926 -> 928 ;
929 [label="X[2] <= -0.001\ngini = 0.114\nsamples = 67\nvalue = [0, 2, 0, 0, 63, 0, 0, 0, 0, 2]"] ;
925 -> 929 ;
930 [label="X[12] <= 0.065\ngini = 0.5\nsamples = 2\nvalue = [0, 0, 0, 0, 1, 0, 0, 0, 0, 1]"] ;
929 -> 930 ;
931 [label="gini = 0.0\nsamples = 1\nvalue = [0, 0, 0, 0, 0, 0, 0, 0, 0, 1]"] ;
930 -> 931 ;
932 [label="gini = 0.0\nsamples = 1\nvalue = [0, 0, 0, 0, 1, 0, 0, 0, 0, 0]"] ;
930 -> 932 ;
933 [label="X[5] <= 7.293\ngini = 0.089\nsamples = 65\nvalue = [0, 2, 0, 0, 62, 0, 0, 0, 0, 1]"] ;
929 -> 933 ;
934 [label="X[7] <= 1.026\ngini = 0.062\nsamples = 62\nvalue = [0, 2, 0, 0, 60, 0, 0, 0, 0, 0]"] ;
933 -> 934 ;
935 [label="X[11] <= 0.184\ngini = 0.245\nsamples = 14\nvalue = [0, 2, 0, 0, 12, 0, 0, 0, 0, 0]"] ;
934 -> 935 ;
936 [label="gini = 0.0\nsamples = 1\nvalue = [0, 1, 0, 0, 0, 0, 0, 0, 0, 0]"] ;
935 -> 936 ;
937 [label="X[10] <= 0.065\ngini = 0.142\nsamples = 13\nvalue = [0, 1, 0, 0, 12, 0, 0, 0, 0, 0]"] ;
935 -> 937 ;
938 [label="gini = 0.0\nsamples = 1\nvalue = [0, 1, 0, 0, 0, 0, 0, 0, 0, 0]"] ;
937 -> 938 ;
939 [label="gini = 0.0\nsamples = 12\nvalue = [0, 0, 0, 0, 12, 0, 0, 0, 0, 0]"] ;
937 -> 939 ;
940 [label="gini = 0.0\nsamples = 48\nvalue = [0, 0, 0, 0, 48, 0, 0, 0, 0, 0]"] ;
934 -> 940 ;
941 [label="X[6] <= 18.168\ngini = 0.444\nsamples = 3\nvalue = [0, 0, 0, 0, 2, 0, 0, 0, 0, 1]"] ;
933 -> 941 ;
942 [label="gini = 0.0\nsamples = 1\nvalue = [0, 0, 0, 0, 0, 0, 0, 0, 0, 1]"] ;
941 -> 942 ;
943 [label="gini = 0.0\nsamples = 2\nvalue = [0, 0, 0, 0, 2, 0, 0, 0, 0, 0]"] ;
941 -> 943 ;
944 [label="gini = 0.0\nsamples = 4\nvalue = [0, 0, 0, 0, 0, 0, 0, 0, 0, 4]"] ;
918 -> 944 ;
}
